%YAML:1.0
---
opencv_ml_svm:
   format: 3
   svmType: C_SVC
   kernel:
      type: RBF
      gamma: 1.
   C: 35.
   term_criteria: { epsilon:1.1920928955078125e-07, iterations:1000 }
   var_count: 40
   class_count: 2
   class_labels: !!opencv-matrix
      rows: 2
      cols: 1
      dt: i
      data: [ -1, 1 ]
   sv_total: 616
   support_vectors:
      - [ 5.05050495e-02, 6.06060624e-02, 6.06060624e-02, 3.03030312e-02,
          0., 4.04040404e-02, 5.05050495e-02, 0., 1.01010101e-02,
          2.02020202e-02, 8.08080807e-02, 2.02020202e-02, 2.02020202e-02,
          1.01010101e-02, 0., 0., 1.01010101e-02, 4.04040404e-02,
          4.04040404e-02, 1.01010101e-02, 0., 4.04040404e-02,
          2.02020202e-02, 0., 0., 2.02020202e-02, 7.07070678e-02,
          2.02020202e-02, 3.03030312e-02, 3.03030312e-02, 0.,
          4.04040404e-02, 1.01010101e-02, 0., 1.01010101e-02,
          6.06060624e-02, 2.02020202e-02, 5.05050495e-02, 2.02020202e-02,
          0. ]
      - [ 0., 6.25000000e-02, 6.25000000e-02, 0., 3.12500000e-02,
          7.81250000e-02, 0., 0., 9.37500000e-02, 1.56250000e-02, 0.,
          6.25000000e-02, 1.56250000e-02, 1.56250000e-02, 7.81250000e-02,
          0., 0., 4.68750000e-02, 0., 1.56250000e-02, 6.25000000e-02, 0.,
          1.56250000e-02, 1.56250000e-02, 1.56250000e-02, 1.56250000e-02,
          1.56250000e-02, 0., 4.68750000e-02, 0., 4.68750000e-02,
          3.12500000e-02, 3.12500000e-02, 0., 1.56250000e-02,
          3.12500000e-02, 0., 0., 3.12500000e-02, 4.68750000e-02 ]
      - [ 3.70370373e-02, 6.17283955e-02, 1.23456791e-02, 1.23456791e-02,
          1.23456791e-02, 3.70370373e-02, 2.46913582e-02, 2.46913582e-02,
          7.40740746e-02, 2.46913582e-02, 2.46913582e-02, 3.70370373e-02,
          0., 1.23456791e-02, 2.46913582e-02, 2.46913582e-02, 0.,
          3.70370373e-02, 0., 2.46913582e-02, 0., 4.93827164e-02,
          2.46913582e-02, 1.23456791e-02, 0., 4.93827164e-02,
          3.70370373e-02, 4.93827164e-02, 2.46913582e-02, 2.46913582e-02,
          3.70370373e-02, 0., 3.70370373e-02, 2.46913582e-02,
          1.23456791e-02, 4.93827164e-02, 0., 1.23456791e-02,
          3.70370373e-02, 1.23456791e-02 ]
      - [ 6.45161271e-02, 1.61290318e-02, 3.22580636e-02, 1.61290318e-02,
          1.61290318e-02, 1.61290318e-02, 0., 0., 0., 3.22580636e-02,
          1.12903222e-01, 1.61290318e-02, 3.22580636e-02, 3.22580636e-02,
          1.61290318e-02, 3.22580636e-02, 4.83870953e-02, 3.22580636e-02,
          3.22580636e-02, 1.61290318e-02, 0., 0., 1.61290318e-02, 0., 0.,
          0., 9.67741907e-02, 6.45161271e-02, 1.61290318e-02, 0.,
          4.83870953e-02, 1.61290318e-02, 3.22580636e-02, 1.61290318e-02,
          1.61290318e-02, 1.61290318e-02, 3.22580636e-02, 3.22580636e-02,
          0., 3.22580636e-02 ]
      - [ 3.15789506e-02, 4.21052650e-02, 0., 0., 1.05263162e-02,
          5.26315793e-02, 1.05263162e-02, 2.10526325e-02, 1.05263162e-02,
          2.10526325e-02, 5.26315793e-02, 5.26315793e-02, 0., 0.,
          1.05263159e-01, 5.26315793e-02, 3.15789506e-02, 3.15789506e-02,
          3.15789506e-02, 2.10526325e-02, 1.05263162e-02, 7.36842155e-02,
          2.10526325e-02, 2.10526325e-02, 0., 0., 4.21052650e-02,
          1.05263162e-02, 3.15789506e-02, 0., 3.15789506e-02,
          4.21052650e-02, 1.05263162e-02, 1.05263162e-02, 0.,
          1.05263162e-02, 3.15789506e-02, 3.15789506e-02, 3.15789506e-02,
          1.05263162e-02 ]
      - [ 1.06382973e-01, 0., 4.25531901e-02, 0., 0., 4.25531901e-02, 0.,
          0., 2.12765951e-02, 4.25531901e-02, 2.12765951e-02,
          4.25531901e-02, 2.12765951e-02, 1.06382973e-01, 4.25531901e-02,
          4.25531901e-02, 0., 0., 4.25531901e-02, 2.12765951e-02, 0.,
          4.25531901e-02, 2.12765951e-02, 0., 0., 0., 0., 2.12765951e-02,
          2.12765951e-02, 2.12765951e-02, 0., 0., 0., 1.48936167e-01,
          4.25531901e-02, 0., 2.12765951e-02, 4.25531901e-02,
          2.12765951e-02, 0. ]
      - [ 1.90476194e-01, 0., 0., 4.76190485e-02, 0., 4.76190485e-02, 0.,
          0., 0., 0., 0., 4.76190485e-02, 0., 4.76190485e-02, 0.,
          9.52380970e-02, 0., 4.76190485e-02, 4.76190485e-02,
          4.76190485e-02, 0., 0., 0., 4.76190485e-02, 0., 0., 0., 0.,
          9.52380970e-02, 4.76190485e-02, 4.76190485e-02, 0., 0., 0.,
          4.76190485e-02, 0., 0., 0., 0., 9.52380970e-02 ]
      - [ 5.88235296e-02, 0., 5.88235296e-02, 5.88235296e-02, 0.,
          5.88235296e-02, 5.88235296e-02, 0., 0., 0., 5.88235296e-02,
          8.82352963e-02, 0., 2.94117648e-02, 2.94117648e-02,
          2.94117648e-02, 5.88235296e-02, 0., 2.94117648e-02, 0., 0.,
          2.94117648e-02, 0., 0., 0., 5.88235296e-02, 5.88235296e-02, 0.,
          5.88235296e-02, 0., 0., 2.94117648e-02, 0., 2.94117648e-02,
          2.94117648e-02, 0., 2.94117648e-02, 0., 2.94117648e-02,
          2.94117648e-02 ]
      - [ 4.25531901e-02, 2.12765951e-02, 2.12765951e-02, 2.12765951e-02,
          0., 0., 0., 0., 0., 2.12765951e-02, 4.25531901e-02,
          4.25531901e-02, 2.12765951e-02, 0., 1.06382973e-01,
          4.25531901e-02, 0., 4.25531901e-02, 2.12765951e-02,
          4.25531901e-02, 0., 2.12765951e-02, 6.38297871e-02, 0., 0., 0.,
          4.25531901e-02, 4.25531901e-02, 2.12765951e-02, 0.,
          4.25531901e-02, 2.12765951e-02, 6.38297871e-02, 0.,
          2.12765951e-02, 1.48936167e-01, 0., 0., 2.12765951e-02, 0. ]
      - [ 5.40540554e-02, 3.37837860e-02, 3.37837860e-02, 6.75675692e-03,
          0., 8.10810849e-02, 1.35135138e-02, 1.35135138e-02,
          2.02702712e-02, 6.75675692e-03, 4.72972989e-02, 1.35135138e-02,
          3.37837860e-02, 6.75675692e-03, 2.02702712e-02, 2.02702712e-02,
          1.35135138e-02, 6.08108118e-02, 3.37837860e-02, 3.37837860e-02,
          1.35135138e-02, 2.02702712e-02, 6.75675692e-03, 3.37837860e-02,
          0., 2.70270277e-02, 3.37837860e-02, 2.02702712e-02,
          1.35135138e-02, 2.02702712e-02, 4.72972989e-02, 2.02702712e-02,
          2.70270277e-02, 4.05405425e-02, 4.05405425e-02, 3.37837860e-02,
          6.75675692e-03, 1.35135138e-02, 2.70270277e-02, 6.75675692e-03 ]
      - [ 5.26315793e-02, 7.89473653e-02, 2.63157897e-02, 2.63157897e-02,
          0., 0., 2.63157897e-02, 2.63157897e-02, 0., 2.63157897e-02,
          1.31578952e-01, 0., 2.63157897e-02, 0., 0., 5.26315793e-02, 0.,
          5.26315793e-02, 2.63157897e-02, 0., 2.63157897e-02, 0.,
          2.63157897e-02, 5.26315793e-02, 2.63157897e-02, 5.26315793e-02,
          1.05263159e-01, 2.63157897e-02, 0., 5.26315793e-02, 0., 0.,
          5.26315793e-02, 0., 0., 2.63157897e-02, 0., 0., 0., 0. ]
      - [ 0., 5.71428575e-02, 2.85714287e-02, 2.85714287e-02,
          1.42857144e-02, 0., 0., 2.85714287e-02, 2.85714287e-02,
          1.42857144e-02, 3.14285725e-01, 0., 2.85714287e-02, 0.,
          5.71428575e-02, 0., 0., 7.14285746e-02, 0., 4.28571440e-02, 0.,
          5.71428575e-02, 0., 1.42857144e-02, 0., 2.85714287e-02, 0.,
          2.85714287e-02, 0., 0., 1.42857144e-02, 1.42857144e-02,
          2.85714287e-02, 1.42857144e-02, 1.42857144e-02, 2.85714287e-02,
          2.85714287e-02, 1.42857144e-02, 0., 0. ]
      - [ 2.43902430e-02, 2.43902430e-02, 2.43902430e-02, 0.,
          2.43902430e-02, 7.31707290e-02, 0., 0., 0., 2.43902430e-02,
          2.43902430e-02, 2.43902430e-02, 2.43902430e-02, 4.87804860e-02,
          0., 0., 2.43902430e-02, 7.31707290e-02, 2.43902430e-02, 0., 0.,
          0., 0., 1.21951215e-01, 2.43902430e-02, 2.43902430e-02,
          1.46341458e-01, 4.87804860e-02, 0., 0., 2.43902430e-02,
          2.43902430e-02, 7.31707290e-02, 0., 0., 4.87804860e-02, 0., 0.,
          2.43902430e-02, 0. ]
      - [ 4.54545468e-02, 1.51515156e-02, 1.51515156e-02, 4.54545468e-02,
          0., 1.51515156e-02, 0., 3.03030312e-02, 1.51515156e-02,
          3.03030312e-02, 6.06060624e-02, 6.06060624e-02, 4.54545468e-02,
          4.54545468e-02, 6.06060624e-02, 3.03030312e-02, 1.51515156e-02,
          3.03030312e-02, 3.03030312e-02, 0., 0., 3.03030312e-02, 0., 0.,
          0., 0., 1.51515156e-02, 1.06060609e-01, 3.03030312e-02,
          1.51515156e-02, 1.51515156e-02, 1.51515156e-02, 4.54545468e-02,
          1.51515156e-02, 0., 0., 7.57575780e-02, 4.54545468e-02, 0., 0. ]
      - [ 1.53846160e-01, 0., 2.56410260e-02, 0., 0., 2.56410260e-02,
          2.56410260e-02, 2.56410260e-02, 7.69230798e-02, 2.56410260e-02,
          7.69230798e-02, 2.56410260e-02, 0., 0., 5.12820520e-02,
          2.56410260e-02, 2.56410260e-02, 0., 0., 0., 0., 5.12820520e-02,
          0., 0., 0., 0., 2.56410260e-02, 2.56410260e-02, 0.,
          7.69230798e-02, 2.56410260e-02, 2.56410260e-02, 0., 0.,
          5.12820520e-02, 0., 7.69230798e-02, 2.56410260e-02,
          5.12820520e-02, 0. ]
      - [ 5.26315793e-02, 0., 5.26315793e-02, 2.63157897e-02, 0., 0.,
          2.63157897e-02, 0., 5.26315793e-02, 5.26315793e-02, 0.,
          7.89473653e-02, 2.63157897e-02, 2.63157897e-02, 0.,
          5.26315793e-02, 2.63157897e-02, 2.63157897e-02, 2.63157897e-02,
          5.26315793e-02, 0., 0., 0., 2.63157897e-02, 0., 0.,
          2.63157897e-02, 5.26315793e-02, 5.26315793e-02, 5.26315793e-02,
          2.63157897e-02, 5.26315793e-02, 0., 2.63157897e-02, 0.,
          2.63157897e-02, 2.63157897e-02, 0., 0., 5.26315793e-02 ]
      - [ 5.19480519e-02, 7.79220760e-02, 3.89610380e-02, 0.,
          5.19480519e-02, 5.19480519e-02, 0., 2.59740259e-02,
          3.89610380e-02, 2.59740259e-02, 3.89610380e-02, 1.29870130e-02,
          0., 0., 2.59740259e-02, 0., 1.29870130e-02, 3.89610380e-02,
          1.29870130e-02, 1.29870130e-02, 0., 1.29870130e-02,
          1.29870130e-02, 0., 0., 0., 5.19480519e-02, 3.89610380e-02,
          2.59740259e-02, 1.29870130e-02, 5.19480519e-02, 2.59740259e-02,
          6.49350658e-02, 1.29870130e-02, 2.59740259e-02, 6.49350658e-02,
          1.29870130e-02, 1.29870130e-02, 0., 5.19480519e-02 ]
      - [ 6.55737668e-02, 6.55737668e-02, 1.63934417e-02, 8.19672085e-03,
          1.63934417e-02, 4.91803251e-02, 8.19672085e-03, 8.19672085e-03,
          2.45901626e-02, 3.27868834e-02, 6.55737668e-02, 0.,
          2.45901626e-02, 8.19672085e-03, 0., 3.27868834e-02,
          8.19672085e-03, 4.91803251e-02, 2.45901626e-02, 4.09836024e-02,
          0., 1.63934417e-02, 0., 2.45901626e-02, 0., 3.27868834e-02,
          4.91803251e-02, 3.27868834e-02, 4.09836024e-02, 0.,
          4.09836024e-02, 1.63934417e-02, 1.63934417e-02, 0., 0.,
          4.91803251e-02, 8.19672085e-03, 3.27868834e-02, 4.91803251e-02,
          4.09836024e-02 ]
      - [ 0., 0., 3.99999991e-02, 3.99999991e-02, 0., 0., 0., 0., 0., 0.,
          0., 7.99999982e-02, 0., 0., 1.99999988e-01, 0., 0.,
          3.99999991e-02, 0., 3.99999991e-02, 0., 3.99999991e-02,
          3.99999991e-02, 0., 0., 3.99999991e-02, 0., 3.99999991e-02,
          3.99999991e-02, 7.99999982e-02, 3.99999991e-02, 7.99999982e-02,
          0., 7.99999982e-02, 3.99999991e-02, 0., 0., 0., 0.,
          3.99999991e-02 ]
      - [ 2.98507456e-02, 3.73134315e-02, 2.98507456e-02, 7.46268639e-03,
          7.46268639e-03, 6.71641752e-02, 3.73134315e-02, 1.49253728e-02,
          1.49253728e-02, 0., 2.98507456e-02, 7.46268639e-03,
          7.46268639e-03, 7.46268639e-03, 4.47761193e-02, 2.98507456e-02,
          2.23880596e-02, 1.49253728e-02, 7.46268639e-03, 5.22388034e-02,
          7.46268639e-03, 2.98507456e-02, 2.23880596e-02, 1.49253728e-02,
          0., 2.23880596e-02, 8.20895508e-02, 0., 3.73134315e-02,
          2.98507456e-02, 5.22388034e-02, 7.46268639e-03, 2.98507456e-02,
          2.98507456e-02, 3.73134315e-02, 2.23880596e-02, 1.49253728e-02,
          4.47761193e-02, 1.49253728e-02, 2.98507456e-02 ]
      - [ 8.33333358e-02, 6.25000000e-02, 4.16666679e-02, 2.08333340e-02,
          2.08333340e-02, 6.25000000e-02, 0., 0., 0., 2.08333340e-02,
          2.08333340e-02, 4.16666679e-02, 2.08333340e-02, 4.16666679e-02,
          2.08333340e-02, 6.25000000e-02, 0., 2.08333340e-02, 0., 0., 0.,
          0., 2.08333340e-02, 0., 0., 2.08333340e-02, 6.25000000e-02,
          4.16666679e-02, 2.08333340e-02, 2.08333340e-02, 2.08333340e-02,
          6.25000000e-02, 0., 4.16666679e-02, 2.08333340e-02,
          2.08333340e-02, 2.08333340e-02, 0., 4.16666679e-02,
          4.16666679e-02 ]
      - [ 4.21052650e-02, 8.42105299e-02, 3.15789506e-02, 0.,
          2.10526325e-02, 4.21052650e-02, 0., 2.10526325e-02,
          3.15789506e-02, 4.21052650e-02, 3.15789506e-02, 5.26315793e-02,
          2.10526325e-02, 3.15789506e-02, 6.31579012e-02, 1.05263162e-02,
          1.05263162e-02, 7.36842155e-02, 2.10526325e-02, 4.21052650e-02,
          1.05263162e-02, 4.21052650e-02, 1.05263162e-02, 2.10526325e-02,
          1.05263162e-02, 3.15789506e-02, 2.10526325e-02, 0., 0.,
          1.05263162e-02, 4.21052650e-02, 0., 4.21052650e-02,
          1.05263162e-02, 0., 1.05263162e-02, 0., 3.15789506e-02,
          2.10526325e-02, 1.05263162e-02 ]
      - [ 1.03448272e-01, 0., 3.44827585e-02, 1.72413792e-02, 0.,
          5.17241359e-02, 0., 0., 3.44827585e-02, 5.17241359e-02,
          8.62068981e-02, 0., 3.44827585e-02, 5.17241359e-02,
          1.72413792e-02, 1.72413792e-02, 0., 3.44827585e-02,
          1.72413792e-02, 5.17241359e-02, 3.44827585e-02, 1.72413792e-02,
          3.44827585e-02, 0., 0., 0., 0., 3.44827585e-02, 5.17241359e-02,
          3.44827585e-02, 3.44827585e-02, 0., 1.72413792e-02, 0.,
          1.72413792e-02, 3.44827585e-02, 1.72413792e-02, 1.72413792e-02,
          3.44827585e-02, 1.72413792e-02 ]
      - [ 1.25000000e-01, 8.33333358e-02, 4.16666679e-02, 0., 0.,
          4.16666679e-02, 0., 8.33333358e-02, 0., 0., 0., 8.33333358e-02,
          0., 0., 4.16666679e-02, 0., 0., 8.33333358e-02, 0., 0., 0.,
          8.33333358e-02, 0., 0., 0., 4.16666679e-02, 0., 0.,
          8.33333358e-02, 0., 0., 4.16666679e-02, 4.16666679e-02,
          4.16666679e-02, 8.33333358e-02, 0., 0., 0., 0., 0. ]
      - [ 2.43902430e-02, 1.46341458e-01, 7.31707290e-02, 4.87804860e-02,
          0., 0., 0., 0., 4.87804860e-02, 0., 4.87804860e-02,
          7.31707290e-02, 4.87804860e-02, 0., 4.87804860e-02,
          7.31707290e-02, 0., 2.43902430e-02, 0., 2.43902430e-02, 0., 0.,
          0., 2.43902430e-02, 0., 0., 2.43902430e-02, 2.43902430e-02,
          2.43902430e-02, 2.43902430e-02, 0., 4.87804860e-02, 0.,
          4.87804860e-02, 0., 2.43902430e-02, 2.43902430e-02,
          2.43902430e-02, 0., 2.43902430e-02 ]
      - [ 7.69230798e-02, 1.53846154e-02, 4.61538471e-02, 0., 0.,
          4.61538471e-02, 0., 3.07692308e-02, 4.61538471e-02,
          3.07692308e-02, 1.53846154e-02, 6.15384616e-02, 1.53846154e-02,
          1.53846154e-02, 4.61538471e-02, 0., 0., 1.53846154e-02,
          1.53846154e-02, 6.15384616e-02, 3.07692308e-02, 0.,
          4.61538471e-02, 0., 0., 1.53846154e-02, 3.07692308e-02,
          1.53846154e-02, 0., 1.07692309e-01, 1.53846154e-02,
          1.53846154e-02, 3.07692308e-02, 1.53846154e-02, 1.53846154e-02,
          0., 3.07692308e-02, 3.07692308e-02, 1.53846154e-02,
          4.61538471e-02 ]
      - [ 1.44927539e-02, 2.89855078e-02, 1.44927539e-02, 0.,
          1.44927539e-02, 4.34782617e-02, 0., 5.79710156e-02, 0.,
          4.34782617e-02, 2.89855078e-02, 1.44927539e-02, 4.34782617e-02,
          0., 1.44927539e-02, 0., 1.44927539e-02, 5.79710156e-02,
          1.44927539e-02, 2.89855078e-02, 0., 0., 0., 5.79710156e-02,
          1.44927539e-02, 2.89855078e-02, 7.24637657e-02, 4.34782617e-02,
          0., 0., 1.01449281e-01, 2.89855078e-02, 5.79710156e-02, 0., 0.,
          4.34782617e-02, 1.44927539e-02, 1.44927539e-02, 2.89855078e-02,
          5.79710156e-02 ]
      - [ 7.69230798e-02, 1.53846154e-02, 4.61538471e-02, 0., 0.,
          4.61538471e-02, 0., 3.07692308e-02, 4.61538471e-02,
          3.07692308e-02, 1.53846154e-02, 6.15384616e-02, 1.53846154e-02,
          1.53846154e-02, 4.61538471e-02, 0., 0., 1.53846154e-02,
          1.53846154e-02, 6.15384616e-02, 3.07692308e-02, 0.,
          4.61538471e-02, 0., 0., 1.53846154e-02, 3.07692308e-02,
          1.53846154e-02, 0., 1.07692309e-01, 1.53846154e-02,
          1.53846154e-02, 3.07692308e-02, 1.53846154e-02, 1.53846154e-02,
          0., 3.07692308e-02, 3.07692308e-02, 1.53846154e-02,
          4.61538471e-02 ]
      - [ 4.10958901e-02, 7.53424615e-02, 3.42465751e-02, 2.05479451e-02,
          2.73972601e-02, 2.73972601e-02, 1.36986300e-02, 1.36986300e-02,
          2.73972601e-02, 3.42465751e-02, 3.42465751e-02, 2.05479451e-02,
          6.84931502e-03, 2.05479451e-02, 1.36986300e-02, 4.10958901e-02,
          0., 3.42465751e-02, 3.42465751e-02, 3.42465751e-02,
          6.84931502e-03, 6.16438352e-02, 6.84931502e-03, 0.,
          6.84931502e-03, 0., 3.42465751e-02, 2.73972601e-02,
          3.42465751e-02, 0., 2.73972601e-02, 2.05479451e-02,
          1.36986300e-02, 6.84931502e-03, 4.10958901e-02, 5.47945201e-02,
          1.36986300e-02, 4.10958901e-02, 2.73972601e-02, 2.05479451e-02 ]
      - [ 4.21052650e-02, 3.15789506e-02, 1.05263162e-02, 2.10526325e-02,
          2.10526325e-02, 0., 0., 4.21052650e-02, 2.10526325e-02,
          5.26315793e-02, 2.10526325e-02, 0., 3.15789506e-02,
          1.05263162e-02, 3.15789506e-02, 1.05263162e-02, 0.,
          2.10526325e-02, 3.15789506e-02, 3.15789506e-02, 0.,
          7.36842155e-02, 1.05263162e-02, 1.05263162e-02, 0.,
          3.15789506e-02, 5.26315793e-02, 8.42105299e-02, 2.10526325e-02,
          4.21052650e-02, 4.21052650e-02, 4.21052650e-02, 3.15789506e-02,
          1.05263162e-02, 2.10526325e-02, 3.15789506e-02, 1.05263162e-02,
          1.05263162e-02, 1.05263162e-02, 3.15789506e-02 ]
      - [ 4.30107526e-02, 2.15053763e-02, 3.22580636e-02, 2.15053763e-02,
          1.07526882e-02, 3.22580636e-02, 7.52688199e-02, 0.,
          1.07526882e-02, 1.07526882e-02, 3.22580636e-02, 4.30107526e-02,
          4.30107526e-02, 0., 4.30107526e-02, 2.15053763e-02,
          1.07526882e-02, 3.22580636e-02, 2.15053763e-02, 0.,
          1.07526882e-02, 1.07526882e-02, 0., 1.07526882e-02, 0.,
          1.07526882e-02, 1.07526883e-01, 0., 2.15053763e-02,
          2.15053763e-02, 5.37634417e-02, 1.07526882e-02, 1.07526882e-02,
          2.15053763e-02, 0., 2.15053763e-02, 2.15053763e-02,
          9.67741907e-02, 4.30107526e-02, 2.15053763e-02 ]
      - [ 1.66666672e-01, 0., 0., 6.66666701e-02, 0., 0., 0., 0.,
          3.33333351e-02, 0., 0., 3.33333351e-02, 3.33333351e-02,
          3.33333351e-02, 0., 3.33333351e-02, 3.33333351e-02,
          3.33333351e-02, 0., 6.66666701e-02, 0., 0., 6.66666701e-02, 0.,
          0., 3.33333351e-02, 0., 0., 3.33333351e-02, 0., 6.66666701e-02,
          0., 0., 6.66666701e-02, 6.66666701e-02, 0., 0., 3.33333351e-02,
          6.66666701e-02, 3.33333351e-02 ]
      - [ 1.69491526e-02, 3.38983051e-02, 6.77966103e-02, 0.,
          3.38983051e-02, 3.38983051e-02, 0., 3.38983051e-02,
          3.38983051e-02, 3.38983051e-02, 0., 5.08474559e-02, 0.,
          1.69491526e-02, 1.69491526e-02, 1.69491526e-02, 1.69491526e-02,
          0., 5.08474559e-02, 3.38983051e-02, 1.69491526e-02,
          5.08474559e-02, 1.69491526e-02, 0., 0., 3.38983051e-02,
          3.38983051e-02, 1.69491526e-02, 0., 0., 3.38983051e-02,
          5.08474559e-02, 3.38983051e-02, 0., 6.77966103e-02,
          3.38983051e-02, 0., 5.08474559e-02, 6.77966103e-02, 0. ]
      - [ 1.66666672e-01, 0., 0., 6.66666701e-02, 0., 0., 0., 0.,
          3.33333351e-02, 0., 0., 3.33333351e-02, 3.33333351e-02,
          3.33333351e-02, 0., 3.33333351e-02, 3.33333351e-02,
          3.33333351e-02, 0., 6.66666701e-02, 0., 0., 6.66666701e-02, 0.,
          0., 3.33333351e-02, 0., 0., 3.33333351e-02, 0., 6.66666701e-02,
          0., 0., 6.66666701e-02, 6.66666701e-02, 0., 0., 3.33333351e-02,
          6.66666701e-02, 3.33333351e-02 ]
      - [ 1.66666672e-01, 0., 0., 6.66666701e-02, 0., 0., 0., 0.,
          3.33333351e-02, 0., 0., 3.33333351e-02, 3.33333351e-02,
          3.33333351e-02, 0., 3.33333351e-02, 3.33333351e-02,
          3.33333351e-02, 0., 6.66666701e-02, 0., 0., 6.66666701e-02, 0.,
          0., 3.33333351e-02, 0., 0., 3.33333351e-02, 0., 6.66666701e-02,
          0., 0., 6.66666701e-02, 6.66666701e-02, 0., 0., 3.33333351e-02,
          6.66666701e-02, 3.33333351e-02 ]
      - [ 2.22222228e-02, 2.22222228e-02, 0., 0., 2.22222228e-02,
          6.66666701e-02, 2.22222228e-02, 2.22222228e-02, 4.44444455e-02,
          6.66666701e-02, 2.22222228e-02, 0., 2.22222228e-02, 0.,
          2.22222228e-02, 6.66666701e-02, 0., 4.44444455e-02,
          2.22222228e-02, 2.22222228e-02, 0., 0., 2.22222228e-02, 0., 0.,
          4.44444455e-02, 0., 0., 2.22222228e-02, 4.44444455e-02,
          6.66666701e-02, 4.44444455e-02, 0., 2.22222228e-02,
          2.22222228e-02, 6.66666701e-02, 2.22222228e-02, 2.22222228e-02,
          2.22222228e-02, 6.66666701e-02 ]
      - [ 3.84615399e-02, 5.12820520e-02, 0., 1.28205130e-02, 0.,
          3.84615399e-02, 2.56410260e-02, 3.84615399e-02, 3.84615399e-02,
          2.56410260e-02, 2.56410260e-02, 1.28205130e-02, 6.41025677e-02,
          2.56410260e-02, 2.56410260e-02, 3.84615399e-02, 2.56410260e-02,
          3.84615399e-02, 0., 1.28205130e-02, 1.28205130e-02,
          5.12820520e-02, 0., 2.56410260e-02, 0., 3.84615399e-02,
          3.84615399e-02, 3.84615399e-02, 0., 3.84615399e-02,
          1.28205130e-02, 3.84615399e-02, 2.56410260e-02, 0.,
          2.56410260e-02, 1.28205130e-02, 0., 1.28205130e-02,
          1.28205130e-02, 7.69230798e-02 ]
      - [ 1.23456791e-02, 7.40740746e-02, 2.46913582e-02, 0.,
          2.46913582e-02, 4.93827164e-02, 1.23456791e-02, 1.23456791e-02,
          2.46913582e-02, 2.46913582e-02, 1.11111112e-01, 0., 0., 0.,
          1.23456791e-02, 2.46913582e-02, 0., 2.46913582e-02, 0.,
          1.23456791e-02, 1.23456791e-02, 8.64197537e-02, 0.,
          1.23456791e-02, 0., 2.46913582e-02, 4.93827164e-02,
          3.70370373e-02, 7.40740746e-02, 4.93827164e-02, 1.23456791e-02,
          3.70370373e-02, 3.70370373e-02, 0., 0., 2.46913582e-02, 0.,
          2.46913582e-02, 1.23456791e-02, 6.17283955e-02 ]
      - [ 2.27272734e-02, 4.54545468e-02, 5.68181835e-02, 7.95454532e-02,
          1.13636367e-02, 2.27272734e-02, 2.27272734e-02, 0.,
          1.13636367e-02, 1.13636367e-02, 1.02272734e-01, 3.40909101e-02,
          0., 1.13636367e-02, 1.13636367e-01, 3.40909101e-02,
          2.27272734e-02, 1.13636367e-02, 3.40909101e-02, 3.40909101e-02,
          1.13636367e-02, 3.40909101e-02, 0., 1.13636367e-02,
          1.13636367e-02, 2.27272734e-02, 0., 2.27272734e-02,
          2.27272734e-02, 1.13636367e-02, 0., 1.13636367e-02,
          1.13636367e-02, 1.13636367e-02, 1.13636367e-02, 4.54545468e-02,
          2.27272734e-02, 1.13636367e-02, 1.13636367e-02, 3.40909101e-02 ]
      - [ 7.69230798e-02, 3.84615399e-02, 1.28205130e-02, 0., 0., 0.,
          2.56410260e-02, 0., 5.12820520e-02, 3.84615399e-02,
          7.69230798e-02, 5.12820520e-02, 3.84615399e-02, 2.56410260e-02,
          2.56410260e-02, 1.28205130e-02, 3.84615399e-02, 1.28205130e-02,
          0., 0., 0., 2.56410260e-02, 3.84615399e-02, 1.28205130e-02, 0.,
          1.28205130e-02, 2.56410260e-02, 5.12820520e-02, 2.56410260e-02,
          5.12820520e-02, 3.84615399e-02, 1.28205130e-02, 1.28205130e-02,
          3.84615399e-02, 1.28205130e-02, 3.84615399e-02, 2.56410260e-02,
          2.56410260e-02, 1.28205130e-02, 1.28205130e-02 ]
      - [ 3.03030312e-02, 3.03030312e-02, 5.05050495e-02, 1.01010101e-02,
          3.03030312e-02, 4.04040404e-02, 1.01010101e-02, 3.03030312e-02,
          4.04040404e-02, 1.01010101e-02, 7.07070678e-02, 5.05050495e-02,
          4.04040404e-02, 1.01010101e-02, 2.02020202e-02, 1.01010101e-02,
          1.01010101e-02, 5.05050495e-02, 2.02020202e-02, 5.05050495e-02,
          1.01010101e-02, 2.02020202e-02, 1.01010101e-02, 1.01010101e-02,
          1.01010101e-02, 1.01010101e-02, 7.07070678e-02, 1.01010101e-02,
          2.02020202e-02, 1.01010101e-02, 3.03030312e-02, 3.03030312e-02,
          5.05050495e-02, 0., 1.01010101e-02, 5.05050495e-02,
          1.01010101e-02, 1.01010101e-02, 1.01010101e-02, 0. ]
      - [ 2.22222228e-02, 7.77777806e-02, 5.55555560e-02, 0., 0.,
          4.44444455e-02, 1.11111114e-02, 6.66666701e-02, 7.77777806e-02,
          4.44444455e-02, 2.22222228e-02, 4.44444455e-02, 1.11111114e-02,
          2.22222228e-02, 5.55555560e-02, 0., 0., 2.22222228e-02,
          1.11111114e-02, 3.33333351e-02, 1.11111114e-02, 3.33333351e-02,
          1.11111114e-02, 1.11111114e-02, 0., 3.33333351e-02,
          2.22222228e-02, 3.33333351e-02, 1.11111114e-02, 4.44444455e-02,
          1.11111114e-02, 3.33333351e-02, 1.11111114e-02, 0.,
          1.11111114e-02, 2.22222228e-02, 0., 4.44444455e-02,
          1.11111114e-02, 2.22222228e-02 ]
      - [ 4.12371121e-02, 0., 1.03092780e-02, 1.03092780e-02, 0.,
          1.03092780e-02, 0., 0., 1.03092780e-02, 1.03092780e-02,
          6.18556663e-02, 4.12371121e-02, 5.15463911e-02, 4.12371121e-02,
          6.18556663e-02, 4.12371121e-02, 1.03092780e-02, 3.09278332e-02,
          0., 0., 0., 1.64948449e-01, 3.09278332e-02, 0., 0., 0.,
          1.03092780e-02, 2.06185561e-02, 4.12371121e-02, 7.21649453e-02,
          0., 3.09278332e-02, 2.06185561e-02, 3.09278332e-02,
          3.09278332e-02, 0., 1.03092780e-02, 2.06185561e-02,
          2.06185561e-02, 6.18556663e-02 ]
      - [ 2.65486725e-02, 4.42477874e-02, 3.53982300e-02, 1.76991150e-02,
          0., 1.76991150e-02, 8.84955749e-03, 0., 3.53982300e-02,
          8.84955749e-03, 2.65486725e-02, 9.73451287e-02, 2.65486725e-02,
          5.30973449e-02, 8.84955749e-02, 2.65486725e-02, 1.76991150e-02,
          8.84955749e-03, 1.76991150e-02, 2.65486725e-02, 8.84955749e-03,
          1.76991150e-02, 0., 8.84955749e-03, 8.84955749e-03,
          1.76991150e-02, 2.65486725e-02, 4.42477874e-02, 2.65486725e-02,
          5.30973449e-02, 8.84955749e-03, 4.42477874e-02, 0.,
          3.53982300e-02, 0., 1.76991150e-02, 8.84955749e-03,
          5.30973449e-02, 1.76991150e-02, 1.76991150e-02 ]
      - [ 4.34782617e-02, 5.79710156e-02, 5.79710156e-02, 2.89855078e-02,
          0., 4.34782617e-02, 1.44927539e-02, 1.44927539e-02,
          1.44927539e-02, 0., 1.15942031e-01, 1.44927539e-02,
          2.89855078e-02, 2.89855078e-02, 1.44927539e-02, 1.44927539e-02,
          0., 2.89855078e-02, 0., 1.44927539e-02, 0., 8.69565234e-02, 0.,
          1.44927539e-02, 0., 0., 2.89855078e-02, 1.44927539e-02,
          2.89855078e-02, 8.69565234e-02, 2.89855078e-02, 0.,
          4.34782617e-02, 1.44927539e-02, 1.44927539e-02, 4.34782617e-02,
          1.44927539e-02, 1.44927539e-02, 1.44927539e-02, 1.44927539e-02 ]
      - [ 0., 7.14285746e-02, 7.14285746e-02, 0., 0., 0., 0.,
          7.14285746e-02, 0., 0., 0., 7.14285746e-02, 0., 0., 0., 0., 0.,
          0., 0., 0., 0., 0., 1.42857149e-01, 0., 0., 7.14285746e-02,
          2.14285731e-01, 0., 7.14285746e-02, 0., 0., 0., 0., 0., 0., 0.,
          0., 1.42857149e-01, 7.14285746e-02, 0. ]
      - [ 1.02564104e-01, 0., 0., 2.56410260e-02, 0., 5.12820520e-02, 0.,
          2.56410260e-02, 5.12820520e-02, 2.56410260e-02, 7.69230798e-02,
          0., 0., 2.56410260e-02, 2.56410260e-02, 5.12820520e-02,
          2.56410260e-02, 0., 0., 5.12820520e-02, 0., 7.69230798e-02, 0.,
          0., 0., 1.02564104e-01, 0., 0., 0., 1.53846160e-01, 0., 0., 0.,
          2.56410260e-02, 0., 0., 0., 5.12820520e-02, 2.56410260e-02,
          2.56410260e-02 ]
      - [ 0., 6.15384616e-02, 4.61538471e-02, 1.53846154e-02,
          1.53846154e-02, 7.69230798e-02, 0., 3.07692308e-02,
          1.53846154e-02, 6.15384616e-02, 4.61538471e-02, 3.07692308e-02,
          1.53846154e-02, 1.53846154e-02, 3.07692308e-02, 1.53846154e-02,
          0., 7.69230798e-02, 0., 0., 1.53846154e-02, 3.07692308e-02, 0.,
          3.07692308e-02, 3.07692308e-02, 4.61538471e-02, 6.15384616e-02,
          6.15384616e-02, 0., 0., 4.61538471e-02, 1.53846154e-02,
          3.07692308e-02, 0., 1.53846154e-02, 1.53846154e-02, 0.,
          3.07692308e-02, 0., 1.53846154e-02 ]
      - [ 0., 1.36363640e-01, 9.09090936e-02, 0., 0., 0., 0., 0., 0., 0.,
          0., 0., 0., 0., 0., 0., 0., 4.54545468e-02, 4.54545468e-02, 0.,
          0., 0., 9.09090936e-02, 1.36363640e-01, 0., 0., 2.27272734e-01,
          0., 0., 0., 4.54545468e-02, 0., 0., 0., 0., 4.54545468e-02, 0.,
          1.36363640e-01, 0., 0. ]
      - [ 2.85714287e-02, 5.71428575e-02, 0., 0., 0., 0., 0., 0.,
          8.57142881e-02, 5.71428575e-02, 0., 5.71428575e-02, 0.,
          5.71428575e-02, 2.85714287e-02, 0., 0., 0., 0., 2.85714287e-02,
          5.71428575e-02, 2.85714287e-02, 5.71428575e-02, 0., 0.,
          5.71428575e-02, 2.85714287e-02, 2.85714287e-02, 5.71428575e-02,
          0., 2.85714287e-02, 1.14285715e-01, 2.85714287e-02, 0.,
          2.85714287e-02, 0., 0., 2.85714287e-02, 2.85714287e-02,
          2.85714287e-02 ]
      - [ 3.22580636e-02, 3.22580636e-02, 7.52688199e-02, 3.22580636e-02,
          0., 1.07526882e-02, 2.15053763e-02, 1.07526882e-02,
          3.22580636e-02, 1.07526882e-02, 4.30107526e-02, 4.30107526e-02,
          2.15053763e-02, 0., 6.45161271e-02, 3.22580636e-02,
          1.07526882e-02, 2.15053763e-02, 0., 0., 2.15053763e-02,
          1.39784947e-01, 2.15053763e-02, 1.07526882e-02, 0.,
          4.30107526e-02, 3.22580636e-02, 2.15053763e-02, 2.15053763e-02,
          5.37634417e-02, 2.15053763e-02, 2.15053763e-02, 1.07526882e-02,
          0., 0., 2.15053763e-02, 0., 1.07526882e-02, 2.15053763e-02,
          3.22580636e-02 ]
      - [ 1.33333340e-01, 0., 0., 6.66666701e-02, 0., 3.33333351e-02, 0.,
          0., 3.33333351e-02, 0., 0., 1.00000009e-01, 0., 0.,
          2.33333349e-01, 0., 0., 0., 3.33333351e-02, 0., 0.,
          3.33333351e-02, 6.66666701e-02, 0., 3.33333351e-02, 0.,
          3.33333351e-02, 3.33333351e-02, 0., 3.33333351e-02, 0.,
          3.33333351e-02, 0., 0., 0., 6.66666701e-02, 0., 0., 0.,
          3.33333351e-02 ]
      - [ 0., 0., 4.16666679e-02, 0., 0., 0., 0., 1.25000000e-01, 0.,
          1.66666672e-01, 0., 1.66666672e-01, 4.16666679e-02, 0., 0., 0.,
          0., 0., 0., 0., 0., 0., 0., 4.16666679e-02, 0., 0., 0.,
          4.16666679e-02, 0., 0., 0., 0., 8.33333358e-02, 0., 0., 0., 0.,
          0., 4.16666679e-02, 2.50000000e-01 ]
      - [ 1.40845068e-02, 7.04225302e-02, 5.63380271e-02, 2.81690136e-02,
          0., 1.40845068e-02, 1.40845068e-02, 1.40845068e-02,
          1.40845068e-02, 0., 1.26760557e-01, 1.40845068e-02, 0., 0.,
          4.22535203e-02, 1.40845068e-02, 0., 7.04225302e-02,
          5.63380271e-02, 0., 1.40845068e-02, 4.22535203e-02,
          1.40845068e-02, 1.40845068e-02, 0., 0., 7.04225302e-02,
          1.40845068e-02, 1.40845068e-02, 2.81690136e-02, 5.63380271e-02,
          1.40845068e-02, 5.63380271e-02, 1.40845068e-02, 0.,
          1.40845068e-02, 1.40845068e-02, 4.22535203e-02, 1.40845068e-02,
          1.40845068e-02 ]
      - [ 2.15053763e-02, 6.45161271e-02, 9.67741907e-02, 0., 0.,
          3.22580636e-02, 1.07526882e-02, 1.07526882e-02, 0.,
          2.15053763e-02, 7.52688199e-02, 0., 2.15053763e-02, 0.,
          4.30107526e-02, 2.15053763e-02, 1.07526882e-02, 3.22580636e-02,
          1.07526882e-02, 2.15053763e-02, 1.07526882e-02, 1.07526883e-01,
          3.22580636e-02, 2.15053763e-02, 0., 1.07526882e-02,
          5.37634417e-02, 2.15053763e-02, 1.07526882e-02, 1.07526882e-02,
          4.30107526e-02, 1.07526882e-02, 1.07526882e-02, 1.07526882e-02,
          1.07526882e-02, 1.07526883e-01, 0., 2.15053763e-02, 0.,
          1.07526882e-02 ]
      - [ 3.70370373e-02, 1.85185187e-02, 3.70370373e-02, 3.70370373e-02,
          0., 5.55555560e-02, 0., 0., 3.70370373e-02, 1.85185187e-02,
          5.55555560e-02, 7.40740746e-02, 1.85185187e-02, 1.85185187e-02,
          1.29629627e-01, 1.85185187e-02, 0., 0., 3.70370373e-02,
          1.85185187e-02, 0., 3.70370373e-02, 3.70370373e-02, 0., 0.,
          1.85185187e-02, 5.55555560e-02, 0., 1.85185187e-02,
          5.55555560e-02, 0., 5.55555560e-02, 0., 0., 0., 1.85185187e-02,
          3.70370373e-02, 0., 1.85185187e-02, 3.70370373e-02 ]
      - [ 3.17460336e-02, 7.93650821e-02, 2.38095261e-02, 0.,
          7.93650839e-03, 5.55555597e-02, 3.96825410e-02, 0.,
          2.38095261e-02, 1.58730168e-02, 4.76190522e-02, 3.17460336e-02,
          2.38095261e-02, 7.93650839e-03, 0., 2.38095261e-02,
          7.93650839e-03, 5.55555597e-02, 2.38095261e-02, 2.38095261e-02,
          3.17460336e-02, 0., 1.58730168e-02, 2.38095261e-02,
          7.93650839e-03, 1.58730168e-02, 5.55555597e-02, 2.38095261e-02,
          2.38095261e-02, 7.93650839e-03, 3.96825410e-02, 1.58730168e-02,
          1.58730168e-02, 7.93650839e-03, 2.38095261e-02, 7.14285746e-02,
          1.58730168e-02, 4.76190522e-02, 0., 3.17460336e-02 ]
      - [ 1.72413792e-02, 1.72413792e-02, 3.44827585e-02, 3.44827585e-02,
          0., 0., 0., 3.44827585e-02, 5.17241359e-02, 5.17241359e-02,
          1.72413792e-02, 1.03448272e-01, 0., 3.44827585e-02,
          8.62068981e-02, 0., 1.72413792e-02, 1.72413792e-02, 0., 0., 0.,
          5.17241359e-02, 1.72413792e-02, 1.72413792e-02, 0.,
          3.44827585e-02, 0., 3.44827585e-02, 1.72413792e-02,
          1.37931034e-01, 1.72413792e-02, 0., 3.44827585e-02, 0.,
          5.17241359e-02, 1.72413792e-02, 1.72413792e-02, 0., 0.,
          3.44827585e-02 ]
      - [ 1.33333337e-02, 1.33333337e-02, 1.33333337e-02, 1.33333337e-02,
          1.33333337e-02, 2.66666673e-02, 0., 1.33333337e-02,
          5.33333346e-02, 1.33333337e-02, 2.66666673e-02, 2.66666673e-02,
          3.99999991e-02, 1.33333337e-02, 2.66666673e-02, 0.,
          3.99999991e-02, 1.33333337e-02, 1.33333337e-02, 3.99999991e-02,
          2.66666673e-02, 5.33333346e-02, 1.33333337e-02, 2.66666673e-02,
          1.33333337e-02, 1.33333337e-02, 7.99999982e-02, 2.66666673e-02,
          3.99999991e-02, 5.33333346e-02, 1.33333337e-02, 2.66666673e-02,
          5.33333346e-02, 1.33333337e-02, 0., 0., 1.33333337e-02,
          1.33333337e-02, 5.33333346e-02, 5.33333346e-02 ]
      - [ 2.17391308e-02, 2.17391308e-02, 8.69565234e-02, 0.,
          2.17391308e-02, 2.17391308e-02, 0., 2.17391308e-02, 0.,
          2.17391308e-02, 2.17391308e-02, 4.34782617e-02, 4.34782617e-02,
          6.52173907e-02, 6.52173907e-02, 4.34782617e-02, 2.17391308e-02,
          0., 0., 0., 0., 6.52173907e-02, 0., 2.17391308e-02, 0.,
          2.17391308e-02, 0., 1.30434781e-01, 0., 0., 2.17391308e-02,
          4.34782617e-02, 2.17391308e-02, 0., 2.17391308e-02,
          4.34782617e-02, 2.17391308e-02, 2.17391308e-02, 0.,
          4.34782617e-02 ]
      - [ 3.57142873e-02, 3.57142873e-02, 5.95238097e-02, 2.38095243e-02,
          0., 5.95238097e-02, 1.19047621e-02, 2.38095243e-02, 0.,
          3.57142873e-02, 4.76190485e-02, 0., 4.76190485e-02,
          2.38095243e-02, 0., 2.38095243e-02, 2.38095243e-02,
          3.57142873e-02, 2.38095243e-02, 0., 3.57142873e-02,
          7.14285746e-02, 0., 3.57142873e-02, 0., 1.19047621e-02,
          2.38095243e-02, 0., 3.57142873e-02, 1.19047621e-02,
          1.19047621e-02, 5.95238097e-02, 2.38095243e-02, 4.76190485e-02,
          1.19047621e-02, 2.38095243e-02, 2.38095243e-02, 3.57142873e-02,
          0., 2.38095243e-02 ]
      - [ 1.75438598e-02, 3.50877196e-02, 5.26315793e-02, 0., 0.,
          5.26315793e-02, 0., 1.75438598e-02, 3.50877196e-02,
          5.26315793e-02, 3.50877196e-02, 1.75438598e-02, 1.75438598e-02,
          5.26315793e-02, 0., 0., 1.75438598e-02, 7.01754391e-02,
          1.75438598e-02, 0., 0., 3.50877196e-02, 1.75438598e-02,
          7.01754391e-02, 1.75438598e-02, 3.50877196e-02, 3.50877196e-02,
          7.01754391e-02, 1.75438598e-02, 5.26315793e-02, 5.26315793e-02,
          0., 1.75438598e-02, 1.75438598e-02, 0., 0., 0., 1.75438598e-02,
          1.75438598e-02, 3.50877196e-02 ]
      - [ 1.56250000e-02, 0., 4.68750000e-02, 1.56250000e-02, 0.,
          1.25000000e-01, 0., 1.56250000e-02, 7.81250000e-02,
          1.56250000e-02, 0., 4.68750000e-02, 1.56250000e-02,
          4.68750000e-02, 4.68750000e-02, 0., 1.56250000e-02,
          7.81250000e-02, 1.56250000e-02, 1.56250000e-02, 0., 0.,
          3.12500000e-02, 3.12500000e-02, 0., 1.56250000e-02,
          3.12500000e-02, 4.68750000e-02, 6.25000000e-02, 3.12500000e-02,
          1.56250000e-02, 4.68750000e-02, 0., 3.12500000e-02, 0.,
          1.56250000e-02, 3.12500000e-02, 1.56250000e-02, 0., 0. ]
      - [ 0., 5.00000007e-02, 0., 0., 0., 0., 0., 0., 2.50000004e-02,
          5.00000007e-02, 2.50000004e-02, 7.50000030e-02, 2.50000004e-02,
          0., 2.50000004e-02, 0., 0., 2.50000004e-02, 0., 1.00000001e-01,
          0., 2.50000004e-02, 0., 1.25000000e-01, 0., 2.50000004e-02,
          5.00000007e-02, 7.50000030e-02, 0., 0., 5.00000007e-02, 0.,
          5.00000007e-02, 0., 0., 5.00000007e-02, 0., 5.00000007e-02,
          5.00000007e-02, 5.00000007e-02 ]
      - [ 1.72413792e-02, 8.62068962e-03, 2.58620679e-02, 1.72413792e-02,
          1.72413792e-02, 2.58620679e-02, 8.62068962e-03, 1.72413792e-02,
          2.58620679e-02, 4.31034490e-02, 8.62068962e-03, 7.75862038e-02,
          3.44827585e-02, 2.58620679e-02, 6.89655170e-02, 8.62068962e-03,
          1.72413792e-02, 2.58620679e-02, 2.58620679e-02, 8.62068962e-03,
          0., 8.62068962e-03, 1.72413792e-02, 3.44827585e-02,
          8.62068962e-03, 2.58620679e-02, 8.62068962e-03, 2.58620679e-02,
          5.17241359e-02, 6.03448264e-02, 1.72413792e-02, 0.,
          5.17241359e-02, 1.72413792e-02, 1.72413792e-02, 2.58620679e-02,
          4.31034490e-02, 0., 4.31034490e-02, 3.44827585e-02 ]
      - [ 4.91803251e-02, 3.27868834e-02, 1.63934417e-02, 1.63934417e-02,
          0., 4.91803251e-02, 0., 0., 8.19672048e-02, 1.63934417e-02,
          8.19672048e-02, 3.27868834e-02, 0., 0., 3.27868834e-02, 0.,
          1.63934417e-02, 1.63934417e-02, 0., 0., 0., 8.19672048e-02, 0.,
          0., 0., 0., 0., 1.63934417e-02, 0., 0., 1.63934417e-02,
          3.27868834e-02, 0., 6.55737668e-02, 3.27868834e-02,
          1.47540972e-01, 1.14754096e-01, 4.91803251e-02, 0., 0. ]
      - [ 2.94117667e-02, 0., 1.96078438e-02, 4.90196086e-02, 0.,
          3.92156877e-02, 9.80392192e-03, 4.90196086e-02, 0.,
          4.90196086e-02, 2.94117667e-02, 6.86274543e-02, 9.80392192e-03,
          1.96078438e-02, 3.92156877e-02, 1.96078438e-02, 1.96078438e-02,
          2.94117667e-02, 1.96078438e-02, 1.96078438e-02, 9.80392192e-03,
          9.80392192e-03, 0., 3.92156877e-02, 0., 0., 3.92156877e-02,
          3.92156877e-02, 3.92156877e-02, 4.90196086e-02, 4.90196086e-02,
          1.96078438e-02, 7.84313753e-02, 9.80392192e-03, 9.80392192e-03,
          1.96078438e-02, 1.96078438e-02, 9.80392192e-03, 9.80392192e-03,
          2.94117667e-02 ]
      - [ 5.26315793e-02, 1.75438598e-02, 1.75438598e-02, 0., 0.,
          7.01754391e-02, 5.26315793e-02, 0., 5.26315793e-02,
          3.50877196e-02, 1.75438598e-02, 7.01754391e-02, 3.50877196e-02,
          1.75438598e-02, 1.75438598e-02, 3.50877196e-02, 3.50877196e-02,
          3.50877196e-02, 0., 3.50877196e-02, 1.75438598e-02, 0., 0.,
          1.75438598e-02, 1.75438598e-02, 3.50877196e-02, 3.50877196e-02,
          1.75438598e-02, 7.01754391e-02, 1.75438598e-02, 1.75438598e-02,
          7.01754391e-02, 0., 1.75438598e-02, 1.75438598e-02, 0., 0.,
          5.26315793e-02, 0., 0. ]
      - [ 2.15053763e-02, 4.30107526e-02, 3.22580636e-02, 1.07526882e-02,
          1.07526882e-02, 5.37634417e-02, 2.15053763e-02, 4.30107526e-02,
          4.30107526e-02, 3.22580636e-02, 3.22580636e-02, 1.07526882e-02,
          2.15053763e-02, 0., 2.15053763e-02, 0., 0., 3.22580636e-02,
          2.15053763e-02, 2.15053763e-02, 0., 2.15053763e-02, 0.,
          2.15053763e-02, 0., 4.30107526e-02, 4.30107526e-02,
          1.07526882e-02, 3.22580636e-02, 1.07526882e-02, 2.15053763e-02,
          3.22580636e-02, 7.52688199e-02, 1.07526882e-02, 2.15053763e-02,
          5.37634417e-02, 3.22580636e-02, 4.30107526e-02, 2.15053763e-02,
          3.22580636e-02 ]
      - [ 4.90196086e-02, 9.80392173e-02, 4.90196086e-02, 2.94117667e-02,
          1.96078438e-02, 1.96078438e-02, 1.96078438e-02, 1.96078438e-02,
          9.80392192e-03, 9.80392192e-03, 4.90196086e-02, 2.94117667e-02,
          2.94117667e-02, 1.96078438e-02, 4.90196086e-02, 1.96078438e-02,
          9.80392192e-03, 4.90196086e-02, 4.90196086e-02, 0.,
          2.94117667e-02, 2.94117667e-02, 0., 0., 1.96078438e-02,
          2.94117667e-02, 2.94117667e-02, 9.80392192e-03, 1.96078438e-02,
          1.96078438e-02, 3.92156877e-02, 1.96078438e-02, 2.94117667e-02,
          0., 9.80392192e-03, 1.96078438e-02, 9.80392192e-03,
          2.94117667e-02, 0., 2.94117667e-02 ]
      - [ 6.15384616e-02, 6.15384616e-02, 0., 3.07692308e-02,
          1.53846154e-02, 1.53846154e-02, 0., 3.07692308e-02,
          4.61538471e-02, 6.15384616e-02, 1.07692309e-01, 7.69230798e-02,
          0., 1.53846154e-02, 1.53846154e-02, 6.15384616e-02, 0.,
          6.15384616e-02, 0., 0., 0., 4.61538471e-02, 0., 0., 0.,
          3.07692308e-02, 0., 3.07692308e-02, 1.53846154e-02,
          3.07692308e-02, 0., 4.61538471e-02, 3.07692308e-02, 0., 0.,
          7.69230798e-02, 0., 0., 1.53846154e-02, 1.53846154e-02 ]
      - [ 3.84615399e-02, 8.97435918e-02, 0., 0., 2.56410260e-02,
          3.84615399e-02, 1.28205130e-02, 2.56410260e-02, 1.28205130e-02,
          1.28205130e-02, 3.84615399e-02, 1.28205130e-02, 0.,
          3.84615399e-02, 6.41025677e-02, 2.56410260e-02, 1.28205130e-02,
          1.28205130e-02, 2.56410260e-02, 2.56410260e-02, 0.,
          1.02564104e-01, 1.28205130e-02, 1.28205130e-02, 0.,
          2.56410260e-02, 1.28205130e-02, 7.69230798e-02, 1.28205130e-02,
          2.56410260e-02, 2.56410260e-02, 3.84615399e-02, 3.84615399e-02,
          1.28205130e-02, 0., 3.84615399e-02, 1.28205130e-02,
          1.28205130e-02, 0., 2.56410260e-02 ]
      - [ 9.70873795e-03, 1.94174759e-02, 5.82524277e-02, 0.,
          9.70873795e-03, 9.70873795e-03, 9.70873795e-03, 2.91262139e-02,
          2.91262139e-02, 9.70873795e-03, 9.70873795e-03, 9.70873795e-03,
          2.91262139e-02, 1.94174759e-02, 9.70873795e-03, 2.91262139e-02,
          4.85436916e-02, 1.94174759e-02, 3.88349518e-02, 4.85436916e-02,
          0., 5.82524277e-02, 9.70873795e-03, 2.91262139e-02,
          9.70873795e-03, 9.70873795e-03, 6.79611638e-02, 6.79611638e-02,
          9.70873795e-03, 1.94174759e-02, 9.70873795e-03, 6.79611638e-02,
          1.94174759e-02, 2.91262139e-02, 9.70873795e-03, 2.91262139e-02,
          3.88349518e-02, 2.91262139e-02, 1.94174759e-02, 1.94174759e-02 ]
      - [ 7.37704858e-02, 2.45901626e-02, 8.19672048e-02, 3.27868834e-02,
          0., 7.37704858e-02, 2.45901626e-02, 4.91803251e-02,
          3.27868834e-02, 4.09836024e-02, 4.09836024e-02, 2.45901626e-02,
          2.45901626e-02, 1.63934417e-02, 3.27868834e-02, 8.19672085e-03,
          8.19672085e-03, 8.19672085e-03, 3.27868834e-02, 0.,
          1.63934417e-02, 2.45901626e-02, 8.19672085e-03, 8.19672085e-03,
          0., 0., 2.45901626e-02, 1.63934417e-02, 2.45901626e-02,
          3.27868834e-02, 1.63934417e-02, 2.45901626e-02, 8.19672085e-03,
          1.63934417e-02, 3.27868834e-02, 2.45901626e-02, 2.45901626e-02,
          2.45901626e-02, 2.45901626e-02, 1.63934417e-02 ]
      - [ 9.70873795e-03, 5.82524277e-02, 9.70873833e-02, 1.94174759e-02,
          0., 0., 0., 9.70873795e-03, 9.70873795e-03, 9.70873795e-03,
          9.70873833e-02, 1.94174759e-02, 0., 1.94174759e-02,
          5.82524277e-02, 5.82524277e-02, 0., 3.88349518e-02,
          4.85436916e-02, 9.70873795e-03, 0., 8.73786435e-02,
          1.94174759e-02, 1.94174759e-02, 0., 1.94174759e-02,
          1.94174759e-02, 2.91262139e-02, 0., 9.70873795e-03,
          9.70873795e-03, 9.70873795e-03, 3.88349518e-02, 0.,
          9.70873795e-03, 1.26213595e-01, 0., 1.94174759e-02,
          9.70873795e-03, 9.70873795e-03 ]
      - [ 9.17431153e-03, 3.66972461e-02, 4.58715558e-02, 0.,
          3.66972461e-02, 1.83486231e-02, 9.17431153e-03, 1.83486231e-02,
          2.75229346e-02, 0., 6.42201826e-02, 5.50458692e-02, 0.,
          1.83486231e-02, 9.17431153e-03, 1.83486231e-02, 9.17431153e-03,
          7.33944923e-02, 4.58715558e-02, 9.17431153e-03, 9.17431153e-03,
          3.66972461e-02, 0., 4.58715558e-02, 0., 1.83486231e-02,
          4.58715558e-02, 9.17431153e-03, 0., 8.25688019e-02,
          1.83486231e-02, 2.75229346e-02, 4.58715558e-02, 0., 0.,
          5.50458692e-02, 1.83486231e-02, 4.58715558e-02, 9.17431153e-03,
          2.75229346e-02 ]
      - [ 1.96078438e-02, 3.92156877e-02, 1.17647067e-01, 0., 0., 0., 0.,
          5.88235334e-02, 0., 3.92156877e-02, 0., 7.84313753e-02,
          1.96078438e-02, 0., 5.88235334e-02, 0., 0., 1.96078438e-02,
          3.92156877e-02, 1.96078438e-02, 0., 0., 3.92156877e-02,
          3.92156877e-02, 1.96078438e-02, 3.92156877e-02, 9.80392173e-02,
          5.88235334e-02, 0., 0., 3.92156877e-02, 0., 5.88235334e-02, 0.,
          0., 0., 0., 1.96078438e-02, 1.96078438e-02, 5.88235334e-02 ]
      - [ 5.63380271e-02, 4.22535203e-02, 4.22535203e-02, 1.40845068e-02,
          0., 4.22535203e-02, 0., 1.40845068e-02, 2.81690136e-02,
          2.81690136e-02, 2.81690136e-02, 1.54929578e-01, 1.40845068e-02,
          2.81690136e-02, 1.12676054e-01, 0., 0., 1.40845068e-02, 0., 0.,
          0., 1.40845068e-02, 0., 2.81690136e-02, 0., 0., 2.81690136e-02,
          7.04225302e-02, 1.40845068e-02, 1.40845068e-02, 1.40845068e-02,
          1.40845068e-02, 4.22535203e-02, 0., 1.40845068e-02,
          2.81690136e-02, 1.40845068e-02, 0., 4.22535203e-02,
          4.22535203e-02 ]
      - [ 0., 3.87596898e-02, 3.87596898e-02, 1.55038759e-02,
          2.32558139e-02, 4.65116277e-02, 2.32558139e-02, 7.75193796e-03,
          2.32558139e-02, 7.75193796e-03, 3.87596898e-02, 6.20155036e-02,
          2.32558139e-02, 7.75193796e-03, 1.55038759e-02, 2.32558139e-02,
          0., 3.87596898e-02, 4.65116277e-02, 2.32558139e-02,
          1.55038759e-02, 1.55038759e-02, 0., 2.32558139e-02, 0.,
          7.75193796e-03, 1.55038759e-01, 7.75193796e-03, 1.55038759e-02,
          3.87596898e-02, 7.75193796e-03, 7.75193796e-03, 2.32558139e-02,
          1.55038759e-02, 3.87596898e-02, 4.65116277e-02, 0.,
          3.10077518e-02, 3.10077518e-02, 1.55038759e-02 ]
      - [ 0., 5.88235334e-02, 1.96078438e-02, 0., 1.96078438e-02, 0.,
          3.92156877e-02, 5.88235334e-02, 1.96078438e-02, 0.,
          3.92156877e-02, 7.84313753e-02, 3.92156877e-02, 9.80392173e-02,
          0., 0., 0., 7.84313753e-02, 0., 0., 0., 1.96078438e-02, 0.,
          3.92156877e-02, 0., 5.88235334e-02, 3.92156877e-02,
          3.92156877e-02, 5.88235334e-02, 0., 1.96078438e-02,
          7.84313753e-02, 3.92156877e-02, 0., 1.96078438e-02,
          1.96078438e-02, 0., 0., 0., 1.96078438e-02 ]
      - [ 1.75438598e-02, 3.50877196e-02, 0., 3.50877196e-02, 0.,
          1.05263159e-01, 0., 0., 7.01754391e-02, 0., 3.50877196e-02,
          3.50877196e-02, 0., 1.75438598e-02, 5.26315793e-02,
          1.75438598e-02, 0., 5.26315793e-02, 1.75438598e-02,
          1.75438598e-02, 1.75438598e-02, 1.75438598e-02, 3.50877196e-02,
          5.26315793e-02, 0., 1.75438598e-02, 3.50877196e-02,
          1.75438598e-02, 1.75438598e-02, 0., 5.26315793e-02,
          1.75438598e-02, 5.26315793e-02, 5.26315793e-02, 1.75438598e-02,
          0., 0., 1.75438598e-02, 1.75438598e-02, 5.26315793e-02 ]
      - [ 4.28571440e-02, 5.71428575e-02, 7.14285746e-02, 2.85714287e-02,
          0., 1.42857144e-02, 0., 4.28571440e-02, 2.85714287e-02,
          1.42857144e-02, 2.85714287e-02, 1.00000001e-01, 0., 0.,
          5.71428575e-02, 2.85714287e-02, 0., 1.42857144e-02,
          1.42857144e-02, 1.42857144e-02, 0., 1.42857144e-02,
          2.85714287e-02, 2.85714287e-02, 0., 0., 7.14285746e-02,
          2.85714287e-02, 1.42857144e-02, 1.42857144e-02, 1.42857144e-02,
          2.85714287e-02, 4.28571440e-02, 1.42857144e-02, 0.,
          7.14285746e-02, 1.42857144e-02, 1.42857144e-02, 0.,
          4.28571440e-02 ]
      - [ 5.35714328e-02, 3.57142873e-02, 1.78571437e-02, 0., 0.,
          3.57142873e-02, 0., 7.14285746e-02, 3.57142873e-02,
          3.57142873e-02, 0., 1.42857149e-01, 0., 5.35714328e-02,
          7.14285746e-02, 0., 0., 1.78571437e-02, 1.78571437e-02, 0., 0.,
          1.78571437e-02, 0., 1.78571437e-02, 1.78571437e-02, 0., 0.,
          8.92857164e-02, 3.57142873e-02, 0., 1.78571437e-02,
          3.57142873e-02, 3.57142873e-02, 0., 0., 0., 1.78571437e-02,
          5.35714328e-02, 0., 7.14285746e-02 ]
      - [ 7.50000030e-02, 1.25000002e-02, 6.25000000e-02, 0., 0.,
          2.50000004e-02, 0., 5.00000007e-02, 5.00000007e-02,
          3.75000015e-02, 1.25000002e-02, 0., 1.25000002e-02,
          1.25000002e-02, 1.25000002e-02, 1.25000002e-02, 1.25000002e-02,
          5.00000007e-02, 3.75000015e-02, 1.25000002e-02, 0.,
          3.75000015e-02, 1.25000002e-02, 0., 0., 3.75000015e-02,
          7.50000030e-02, 5.00000007e-02, 6.25000000e-02, 1.25000002e-02,
          1.25000002e-02, 1.25000002e-02, 1.25000002e-02, 2.50000004e-02,
          2.50000004e-02, 6.25000000e-02, 2.50000004e-02, 1.25000002e-02,
          1.25000002e-02, 2.50000004e-02 ]
      - [ 2.85714287e-02, 0., 2.85714287e-02, 0., 0., 5.71428575e-02,
          2.85714287e-02, 8.57142881e-02, 2.85714287e-02, 2.85714287e-02,
          0., 8.57142881e-02, 2.85714287e-02, 2.85714287e-02,
          2.85714287e-02, 0., 2.85714287e-02, 0., 0., 0., 0., 0.,
          5.71428575e-02, 0., 2.85714287e-02, 0., 1.42857149e-01,
          8.57142881e-02, 0., 0., 2.85714287e-02, 5.71428575e-02,
          2.85714287e-02, 0., 0., 0., 0., 0., 5.71428575e-02,
          2.85714287e-02 ]
      - [ 1.21212125e-01, 0., 6.06060624e-02, 3.03030312e-02, 0.,
          3.03030312e-02, 0., 0., 3.03030312e-02, 6.06060624e-02,
          6.06060624e-02, 6.06060624e-02, 0., 6.06060624e-02,
          3.03030312e-02, 9.09090936e-02, 0., 0., 0., 3.03030312e-02, 0.,
          0., 0., 0., 0., 0., 0., 3.03030312e-02, 0., 1.51515156e-01, 0.,
          3.03030312e-02, 0., 3.03030312e-02, 0., 0., 0., 0.,
          3.03030312e-02, 6.06060624e-02 ]
      - [ 1.21951215e-02, 0., 1.09756097e-01, 0., 0., 3.65853645e-02, 0.,
          4.87804860e-02, 3.65853645e-02, 4.87804860e-02, 1.21951215e-02,
          3.65853645e-02, 0., 1.21951215e-02, 4.87804860e-02, 0., 0.,
          2.43902430e-02, 0., 2.43902430e-02, 0., 4.87804860e-02, 0.,
          1.21951215e-02, 0., 2.43902430e-02, 7.31707290e-02,
          3.65853645e-02, 4.87804860e-02, 1.21951215e-02, 2.43902430e-02,
          2.43902430e-02, 4.87804860e-02, 1.21951215e-02, 2.43902430e-02,
          1.21951215e-02, 2.43902430e-02, 2.43902430e-02, 4.87804860e-02,
          4.87804860e-02 ]
      - [ 5.00000045e-02, 1.00000009e-01, 1.66666675e-02, 0., 0.,
          3.33333351e-02, 0., 3.33333351e-02, 0., 3.33333351e-02,
          1.00000009e-01, 1.66666675e-02, 3.33333351e-02, 0.,
          5.00000045e-02, 5.00000045e-02, 3.33333351e-02, 3.33333351e-02,
          1.66666675e-02, 0., 3.33333351e-02, 5.00000045e-02,
          1.66666675e-02, 0., 1.66666675e-02, 0., 5.00000045e-02,
          5.00000045e-02, 1.66666675e-02, 0., 0., 1.66666675e-02, 0., 0.,
          0., 5.00000045e-02, 0., 3.33333351e-02, 3.33333351e-02,
          3.33333351e-02 ]
      - [ 0., 3.17460336e-02, 3.17460336e-02, 4.76190522e-02,
          3.17460336e-02, 0., 0., 6.34920672e-02, 0., 0., 9.52381045e-02,
          6.34920672e-02, 1.58730168e-02, 0., 6.34920672e-02, 0., 0.,
          1.58730168e-02, 1.58730168e-02, 1.58730168e-02, 0.,
          1.26984134e-01, 0., 0., 0., 3.17460336e-02, 0., 3.17460336e-02,
          4.76190522e-02, 1.11111119e-01, 0., 3.17460336e-02, 0.,
          1.58730168e-02, 0., 3.17460336e-02, 0., 0., 1.58730168e-02,
          6.34920672e-02 ]
      - [ 9.34579410e-03, 2.80373823e-02, 1.86915882e-02, 0., 0.,
          2.80373823e-02, 1.86915882e-02, 0., 0., 1.86915882e-02,
          1.86915882e-02, 0., 2.80373823e-02, 9.34579410e-03, 0., 0.,
          9.34579410e-03, 9.34579410e-03, 3.73831764e-02, 2.80373823e-02,
          5.60747646e-02, 2.80373823e-02, 9.34579410e-03, 9.34579410e-03,
          0., 0., 1.12149529e-01, 0., 1.86915882e-02, 0., 2.80373823e-02,
          2.80373823e-02, 9.34579410e-03, 1.86915882e-02, 4.67289686e-02,
          1.86915882e-02, 9.34579410e-03, 3.27102780e-01, 0.,
          1.86915882e-02 ]
      - [ 5.68181835e-02, 4.54545468e-02, 3.40909101e-02, 0.,
          2.27272734e-02, 0., 1.13636367e-02, 1.13636367e-02,
          4.54545468e-02, 5.68181835e-02, 4.54545468e-02, 4.54545468e-02,
          1.13636367e-02, 0., 4.54545468e-02, 3.40909101e-02, 0.,
          2.27272734e-02, 2.27272734e-02, 5.68181835e-02, 1.13636367e-02,
          2.27272734e-02, 1.13636367e-02, 1.13636367e-02, 0.,
          1.13636367e-02, 9.09090936e-02, 4.54545468e-02, 1.13636367e-02,
          1.13636367e-02, 6.81818202e-02, 2.27272734e-02, 1.13636367e-02,
          0., 2.27272734e-02, 1.13636367e-02, 1.13636367e-02,
          1.13636367e-02, 2.27272734e-02, 2.27272734e-02 ]
      - [ 2.58620679e-02, 4.31034490e-02, 5.17241359e-02, 0.,
          8.62068962e-03, 6.03448264e-02, 8.62068962e-03, 2.58620679e-02,
          6.89655170e-02, 4.31034490e-02, 8.62068962e-03, 4.31034490e-02,
          2.58620679e-02, 8.62068962e-03, 5.17241359e-02, 0.,
          2.58620679e-02, 2.58620679e-02, 0., 2.58620679e-02,
          2.58620679e-02, 8.62068962e-03, 8.62068962e-03, 3.44827585e-02,
          0., 8.62068962e-03, 8.62068981e-02, 2.58620679e-02,
          8.62068962e-03, 2.58620679e-02, 4.31034490e-02, 2.58620679e-02,
          5.17241359e-02, 0., 3.44827585e-02, 2.58620679e-02, 0.,
          1.72413792e-02, 8.62068962e-03, 8.62068962e-03 ]
      - [ 5.00000007e-02, 1.66666675e-02, 2.22222228e-02, 1.11111114e-02,
          1.11111114e-02, 8.33333358e-02, 5.55555569e-03, 2.22222228e-02,
          6.11111112e-02, 5.55555569e-03, 2.77777780e-02, 0.,
          1.66666675e-02, 2.22222228e-02, 5.55555569e-03, 3.88888903e-02,
          2.77777780e-02, 3.88888903e-02, 1.11111114e-02, 3.33333351e-02,
          5.55555569e-03, 5.00000007e-02, 0., 1.66666675e-02, 0.,
          1.66666675e-02, 3.88888903e-02, 2.22222228e-02, 1.66666675e-02,
          5.55555560e-02, 2.77777780e-02, 1.66666675e-02, 3.33333351e-02,
          1.66666675e-02, 2.77777780e-02, 3.33333351e-02, 3.33333351e-02,
          3.33333351e-02, 1.11111114e-02, 3.33333351e-02 ]
      - [ 3.73831764e-02, 9.34579410e-03, 6.54205605e-02, 1.86915882e-02,
          1.86915882e-02, 3.73831764e-02, 9.34579410e-03, 2.80373823e-02,
          7.47663528e-02, 3.73831764e-02, 2.80373823e-02, 4.67289686e-02,
          4.67289686e-02, 9.34579410e-03, 3.73831764e-02, 9.34579410e-03,
          9.34579410e-03, 2.80373823e-02, 9.34579410e-03, 9.34579410e-03,
          2.80373823e-02, 0., 9.34579410e-03, 9.34579410e-03,
          9.34579410e-03, 1.86915882e-02, 5.60747646e-02, 7.47663528e-02,
          9.34579410e-03, 9.34579410e-03, 1.86915882e-02, 3.73831764e-02,
          2.80373823e-02, 0., 0., 3.73831764e-02, 0., 2.80373823e-02,
          2.80373823e-02, 2.80373823e-02 ]
      - [ 2.94117648e-02, 0., 4.41176482e-02, 0., 2.94117648e-02,
          2.94117648e-02, 1.47058824e-02, 4.41176482e-02, 4.41176482e-02,
          4.41176482e-02, 5.88235296e-02, 2.94117648e-02, 0., 0.,
          2.94117648e-02, 0., 2.94117648e-02, 1.47058824e-02,
          5.88235296e-02, 2.94117648e-02, 1.47058824e-02, 5.88235296e-02,
          0., 2.94117648e-02, 0., 1.47058824e-02, 1.47058824e-02,
          4.41176482e-02, 2.94117648e-02, 1.47058824e-02, 0.,
          7.35294148e-02, 5.88235296e-02, 2.94117648e-02, 0., 0.,
          2.94117648e-02, 2.94117648e-02, 1.47058824e-02, 1.47058824e-02 ]
      - [ 1.26582280e-01, 3.79746854e-02, 5.06329127e-02, 2.53164563e-02,
          2.53164563e-02, 3.79746854e-02, 0., 0., 3.79746854e-02,
          3.79746854e-02, 1.26582282e-02, 1.26582282e-02, 2.53164563e-02,
          0., 0., 1.26582282e-02, 0., 3.79746854e-02, 2.53164563e-02,
          5.06329127e-02, 2.53164563e-02, 1.26582282e-02, 0.,
          2.53164563e-02, 0., 3.79746854e-02, 5.06329127e-02,
          1.26582282e-02, 2.53164563e-02, 0., 3.79746854e-02,
          2.53164563e-02, 1.26582282e-02, 0., 2.53164563e-02,
          3.79746854e-02, 1.26582282e-02, 6.32911399e-02, 3.79746854e-02,
          0. ]
      - [ 0., 4.44444455e-02, 2.22222228e-02, 0., 2.22222228e-02,
          4.44444455e-02, 0., 0., 6.66666701e-02, 4.44444455e-02,
          6.66666701e-02, 4.44444455e-02, 2.22222228e-02, 0.,
          1.55555561e-01, 4.44444455e-02, 0., 0., 4.44444455e-02, 0., 0.,
          0., 6.66666701e-02, 2.22222228e-02, 2.22222228e-02,
          4.44444455e-02, 0., 0., 2.22222228e-02, 0., 0., 6.66666701e-02,
          4.44444455e-02, 0., 0., 4.44444455e-02, 0., 2.22222228e-02, 0.,
          2.22222228e-02 ]
      - [ 0., 7.14285746e-02, 3.57142873e-02, 0., 0., 0., 0.,
          7.14285746e-02, 0., 3.57142873e-02, 3.57142873e-02,
          7.14285746e-02, 3.57142873e-02, 0., 0., 0., 0., 7.14285746e-02,
          0., 0., 0., 1.78571433e-01, 0., 0., 0., 7.14285746e-02,
          1.07142866e-01, 3.57142873e-02, 0., 0., 3.57142873e-02, 0.,
          1.07142866e-01, 0., 0., 3.57142873e-02, 0., 0., 0., 0. ]
      - [ 3.33333351e-02, 3.33333351e-02, 6.66666701e-02, 0., 0., 0., 0.,
          1.00000009e-01, 3.33333351e-02, 0., 6.66666701e-02,
          3.33333351e-02, 0., 0., 1.00000009e-01, 0., 0., 3.33333351e-02,
          3.33333351e-02, 3.33333351e-02, 0., 3.33333351e-02,
          6.66666701e-02, 0., 3.33333351e-02, 3.33333351e-02,
          3.33333351e-02, 0., 3.33333351e-02, 3.33333351e-02,
          3.33333351e-02, 0., 3.33333351e-02, 0., 0., 3.33333351e-02,
          3.33333351e-02, 3.33333351e-02, 0., 0. ]
      - [ 9.09090936e-02, 9.09090936e-02, 9.09090936e-02, 0., 0.,
          3.03030312e-02, 3.03030312e-02, 0., 0., 9.09090936e-02, 0., 0.,
          3.03030312e-02, 3.03030312e-02, 3.03030312e-02, 0., 0.,
          3.03030312e-02, 0., 0., 0., 0., 3.03030312e-02, 0., 0., 0.,
          6.06060624e-02, 0., 3.03030312e-02, 3.03030312e-02,
          6.06060624e-02, 3.03030312e-02, 0., 3.03030312e-02,
          6.06060624e-02, 9.09090936e-02, 3.03030312e-02, 0., 0., 0. ]
      - [ 2.63157897e-02, 2.63157897e-02, 7.89473653e-02, 0., 0., 0., 0.,
          2.63157897e-02, 2.63157897e-02, 0., 0., 1.84210524e-01, 0., 0.,
          2.10526317e-01, 0., 2.63157897e-02, 0., 0., 0., 0., 0.,
          5.26315793e-02, 0., 2.63157897e-02, 0., 7.89473653e-02,
          2.63157897e-02, 0., 0., 0., 2.63157897e-02, 2.63157897e-02,
          1.05263159e-01, 0., 2.63157897e-02, 2.63157897e-02, 0., 0., 0. ]
      - [ 3.09278332e-02, 6.18556663e-02, 5.15463911e-02, 0., 0.,
          3.09278332e-02, 0., 4.12371121e-02, 5.15463911e-02,
          4.12371121e-02, 5.15463911e-02, 3.09278332e-02, 1.03092780e-02,
          0., 1.03092780e-02, 1.03092780e-02, 1.03092780e-02,
          5.15463911e-02, 3.09278332e-02, 2.06185561e-02, 3.09278332e-02,
          3.09278332e-02, 1.03092780e-02, 1.03092780e-02, 1.03092780e-02,
          0., 5.15463911e-02, 1.03092780e-02, 3.09278332e-02, 0.,
          1.03092780e-02, 5.15463911e-02, 1.03092780e-02, 0.,
          2.06185561e-02, 4.12371121e-02, 2.06185561e-02, 3.09278332e-02,
          3.09278332e-02, 6.18556663e-02 ]
      - [ 6.84931502e-02, 6.84931502e-02, 6.84931502e-02, 1.36986300e-02,
          0., 2.73972601e-02, 0., 0., 0., 0., 2.73972601e-02,
          6.84931502e-02, 2.73972601e-02, 0., 0., 8.21917802e-02, 0.,
          8.21917802e-02, 1.36986300e-02, 1.36986300e-02, 0.,
          5.47945201e-02, 1.36986300e-02, 2.73972601e-02, 1.36986300e-02,
          1.36986300e-02, 8.21917802e-02, 4.10958901e-02, 0.,
          1.36986300e-02, 2.73972601e-02, 1.36986300e-02, 4.10958901e-02,
          0., 0., 2.73972601e-02, 0., 5.47945201e-02, 0., 1.36986300e-02 ]
      - [ 1.63934417e-02, 1.63934417e-02, 1.63934417e-02, 3.27868834e-02,
          0., 1.63934417e-02, 0., 8.19672048e-02, 1.63934417e-02,
          4.91803251e-02, 4.91803251e-02, 3.27868834e-02, 1.63934417e-02,
          1.63934417e-02, 3.27868834e-02, 1.63934417e-02, 1.63934417e-02,
          6.55737668e-02, 0., 3.27868834e-02, 0., 3.27868834e-02,
          1.63934417e-02, 0., 0., 0., 8.19672048e-02, 3.27868834e-02,
          1.63934417e-02, 1.63934417e-02, 1.63934417e-02, 1.63934417e-02,
          6.55737668e-02, 1.63934417e-02, 1.63934417e-02, 4.91803251e-02,
          1.63934417e-02, 0., 3.27868834e-02, 4.91803251e-02 ]
      - [ 4.91803251e-02, 1.63934417e-02, 1.63934417e-02, 0., 0., 0.,
          3.27868834e-02, 6.55737668e-02, 3.27868834e-02, 3.27868834e-02,
          4.91803251e-02, 6.55737668e-02, 0., 3.27868834e-02,
          3.27868834e-02, 4.91803251e-02, 0., 3.27868834e-02,
          3.27868834e-02, 1.63934417e-02, 1.63934417e-02, 6.55737668e-02,
          0., 1.63934417e-02, 1.63934417e-02, 0., 3.27868834e-02,
          3.27868834e-02, 0., 0., 3.27868834e-02, 3.27868834e-02,
          4.91803251e-02, 0., 3.27868834e-02, 3.27868834e-02, 0.,
          3.27868834e-02, 1.63934417e-02, 3.27868834e-02 ]
      - [ 3.84615399e-02, 9.61538479e-02, 5.76923117e-02, 0.,
          1.92307699e-02, 0., 1.92307699e-02, 5.76923117e-02,
          1.92307699e-02, 3.84615399e-02, 1.92307699e-02, 1.92307699e-02,
          0., 1.92307699e-02, 0., 0., 0., 1.92307699e-02, 0.,
          3.84615399e-02, 1.92307699e-02, 5.76923117e-02, 0., 0., 0., 0.,
          1.92307696e-01, 5.76923117e-02, 3.84615399e-02, 0.,
          1.92307699e-02, 1.92307699e-02, 3.84615399e-02, 0., 0.,
          3.84615399e-02, 0., 3.84615399e-02, 0., 1.92307699e-02 ]
      - [ 0., 8.33333358e-02, 0., 0., 2.77777780e-02, 0., 2.77777780e-02,
          2.77777780e-02, 5.55555560e-02, 2.77777780e-02, 0.,
          2.77777780e-02, 2.77777780e-02, 0., 5.55555560e-02, 0., 0.,
          5.55555560e-02, 5.55555560e-02, 2.77777780e-02, 2.77777780e-02,
          8.33333358e-02, 0., 2.77777780e-02, 0., 0., 1.11111112e-01,
          5.55555560e-02, 0., 0., 0., 2.77777780e-02, 2.77777780e-02, 0.,
          0., 5.55555560e-02, 2.77777780e-02, 0., 0., 5.55555560e-02 ]
      - [ 1.51515156e-02, 4.54545468e-02, 1.51515156e-02, 7.57575780e-02,
          1.51515156e-02, 1.51515156e-02, 3.03030312e-02, 1.51515156e-02,
          6.06060624e-02, 0., 3.03030312e-02, 1.51515156e-02,
          4.54545468e-02, 0., 3.03030312e-02, 1.51515156e-02, 0.,
          4.54545468e-02, 4.54545468e-02, 0., 1.51515156e-02,
          4.54545468e-02, 1.51515156e-02, 1.51515156e-02, 0.,
          4.54545468e-02, 1.51515156e-02, 1.51515156e-02, 4.54545468e-02,
          1.51515156e-02, 0., 1.51515156e-02, 1.51515156e-02, 0.,
          3.03030312e-02, 1.51515156e-02, 6.06060624e-02, 6.06060624e-02,
          1.51515156e-02, 4.54545468e-02 ]
      - [ 4.91803251e-02, 8.19672048e-02, 1.63934417e-02, 3.27868834e-02,
          1.63934417e-02, 3.27868834e-02, 1.63934417e-02, 1.63934417e-02,
          3.27868834e-02, 3.27868834e-02, 0., 6.55737668e-02,
          1.63934417e-02, 6.55737668e-02, 8.19672048e-02, 3.27868834e-02,
          0., 3.27868834e-02, 3.27868834e-02, 0., 0., 3.27868834e-02,
          1.63934417e-02, 0., 0., 0., 1.63934417e-02, 3.27868834e-02,
          1.63934417e-02, 4.91803251e-02, 0., 6.55737668e-02, 0., 0., 0.,
          8.19672048e-02, 0., 0., 0., 3.27868834e-02 ]
      - [ 1.72413792e-02, 0., 1.72413792e-02, 0., 1.72413792e-02, 0., 0.,
          6.89655170e-02, 0., 6.89655170e-02, 6.89655170e-02,
          6.89655170e-02, 1.72413792e-02, 3.44827585e-02, 6.89655170e-02,
          3.44827585e-02, 1.72413792e-02, 1.20689653e-01, 0., 0., 0., 0.,
          0., 0., 0., 3.44827585e-02, 8.62068981e-02, 0., 3.44827585e-02,
          0., 1.72413792e-02, 8.62068981e-02, 5.17241359e-02,
          1.72413792e-02, 0., 0., 0., 1.72413792e-02, 1.72413792e-02,
          1.72413792e-02 ]
      - [ 0., 3.33333351e-02, 6.66666701e-02, 0., 0., 3.33333351e-02, 0.,
          0., 6.66666701e-02, 3.33333351e-02, 0., 1.33333340e-01, 0., 0.,
          1.33333340e-01, 0., 3.33333351e-02, 6.66666701e-02, 0., 0., 0.,
          0., 0., 0., 0., 3.33333351e-02, 6.66666701e-02, 3.33333351e-02,
          0., 0., 0., 1.00000009e-01, 3.33333351e-02, 6.66666701e-02,
          3.33333351e-02, 0., 3.33333351e-02, 0., 0., 0. ]
      - [ 2.50000004e-02, 5.00000007e-02, 5.00000007e-02, 2.50000004e-02,
          2.50000004e-02, 0., 2.50000004e-02, 2.50000004e-02, 0.,
          2.50000004e-02, 5.00000007e-02, 5.00000007e-02, 0., 0.,
          2.50000004e-02, 2.50000004e-02, 0., 7.50000030e-02,
          2.50000004e-02, 2.50000004e-02, 0., 0., 2.50000004e-02,
          5.00000007e-02, 2.50000004e-02, 2.50000004e-02, 7.50000030e-02,
          0., 0., 2.50000004e-02, 5.00000007e-02, 2.50000004e-02, 0.,
          2.50000004e-02, 2.50000004e-02, 5.00000007e-02, 0.,
          2.50000004e-02, 2.50000004e-02, 2.50000004e-02 ]
      - [ 2.12765951e-02, 6.38297871e-02, 3.54609936e-02, 0., 0.,
          3.54609936e-02, 2.12765951e-02, 2.12765951e-02, 3.54609936e-02,
          7.09219836e-03, 1.13475174e-01, 2.12765951e-02, 1.41843967e-02,
          3.54609936e-02, 0., 0., 0., 2.12765951e-02, 3.54609936e-02,
          2.12765951e-02, 0., 1.27659574e-01, 1.41843967e-02,
          7.09219836e-03, 0., 1.41843967e-02, 7.09219836e-03, 0.,
          1.41843967e-02, 2.12765951e-02, 1.41843967e-02, 3.54609936e-02,
          2.12765951e-02, 1.41843967e-02, 2.12765951e-02, 9.21985805e-02,
          1.41843967e-02, 6.38297871e-02, 7.09219836e-03, 7.09219836e-03 ]
      - [ 3.63636352e-02, 4.54545431e-02, 5.45454547e-02, 0., 0.,
          1.81818176e-02, 0., 9.09090880e-03, 2.72727273e-02,
          9.09090880e-03, 1.27272725e-01, 1.09090909e-01, 2.72727273e-02,
          0., 8.18181783e-02, 0., 0., 1.81818176e-02, 2.72727273e-02,
          1.81818176e-02, 9.09090880e-03, 5.45454547e-02, 9.09090880e-03,
          1.81818176e-02, 0., 2.72727273e-02, 9.09090880e-03,
          1.81818176e-02, 1.81818176e-02, 9.09090880e-03, 3.63636352e-02,
          9.09090880e-03, 4.54545431e-02, 0., 2.72727273e-02,
          3.63636352e-02, 9.09090880e-03, 3.63636352e-02, 9.09090880e-03,
          9.09090880e-03 ]
      - [ 3.44827585e-02, 0., 1.72413792e-02, 0., 0., 1.72413792e-02, 0.,
          0., 6.89655170e-02, 8.62068981e-02, 5.17241359e-02,
          5.17241359e-02, 5.17241359e-02, 3.44827585e-02, 5.17241359e-02,
          3.44827585e-02, 0., 6.89655170e-02, 0., 1.72413792e-02,
          1.72413792e-02, 5.17241359e-02, 0., 0., 0., 0., 0.,
          6.89655170e-02, 1.72413792e-02, 1.72413792e-02, 3.44827585e-02,
          6.89655170e-02, 0., 0., 3.44827585e-02, 3.44827585e-02, 0., 0.,
          1.72413792e-02, 5.17241359e-02 ]
      - [ 9.61538497e-03, 5.76923117e-02, 3.84615399e-02, 1.92307699e-02,
          0., 3.84615399e-02, 1.92307699e-02, 9.61538497e-03,
          1.92307699e-02, 2.88461559e-02, 6.73076957e-02, 1.92307699e-02,
          3.84615399e-02, 9.61538497e-03, 0., 2.88461559e-02, 0.,
          3.84615399e-02, 6.73076957e-02, 4.80769239e-02, 9.61538497e-03,
          6.73076957e-02, 1.92307699e-02, 9.61538497e-03, 1.92307699e-02,
          0., 6.73076957e-02, 1.92307699e-02, 9.61538497e-03, 0.,
          1.92307699e-02, 0., 0., 9.61538497e-03, 9.61538497e-03,
          1.05769232e-01, 2.88461559e-02, 3.84615399e-02, 9.61538497e-03,
          0. ]
      - [ 5.55555560e-02, 3.70370373e-02, 0., 0., 0., 1.85185187e-02, 0.,
          3.70370373e-02, 5.55555560e-02, 7.40740746e-02, 0.,
          1.85185194e-01, 0., 0., 3.70370373e-02, 0., 3.70370373e-02, 0.,
          0., 5.55555560e-02, 0., 1.85185187e-02, 1.85185187e-02, 0., 0.,
          3.70370373e-02, 0., 7.40740746e-02, 5.55555560e-02,
          1.85185187e-02, 0., 3.70370373e-02, 9.25925970e-02, 0.,
          1.85185187e-02, 0., 0., 0., 1.85185187e-02, 1.85185187e-02 ]
      - [ 1.69491526e-02, 1.69491526e-02, 4.23728824e-02, 8.47457629e-03,
          1.69491526e-02, 8.47457629e-03, 2.54237279e-02, 3.38983051e-02,
          0., 0., 5.08474559e-02, 1.01694912e-01, 0., 2.54237279e-02,
          1.18644066e-01, 8.47457629e-03, 0., 5.93220331e-02,
          8.47457629e-03, 1.69491526e-02, 0., 5.08474559e-02,
          8.47457629e-03, 3.38983051e-02, 0., 4.23728824e-02,
          1.69491526e-02, 7.62711838e-02, 0., 5.08474559e-02,
          1.69491526e-02, 8.47457629e-03, 5.93220331e-02, 0., 0.,
          2.54237279e-02, 0., 1.69491526e-02, 2.54237279e-02,
          8.47457629e-03 ]
      - [ 2.59740259e-02, 3.89610380e-02, 2.59740259e-02, 1.29870130e-02,
          0., 0., 2.59740259e-02, 2.59740259e-02, 1.29870130e-02,
          3.89610380e-02, 1.29870130e-02, 1.16883114e-01, 1.29870130e-02,
          2.59740259e-02, 1.16883114e-01, 1.29870130e-02, 0.,
          2.59740259e-02, 2.59740259e-02, 0., 0., 2.59740259e-02,
          1.29870130e-02, 2.59740259e-02, 0., 2.59740259e-02,
          3.89610380e-02, 2.59740259e-02, 1.29870130e-02, 1.29870130e-02,
          2.59740259e-02, 2.59740259e-02, 7.79220760e-02, 2.59740259e-02,
          0., 3.89610380e-02, 0., 1.29870130e-02, 0., 5.19480519e-02 ]
      - [ 0., 4.59770113e-02, 2.29885057e-02, 3.44827585e-02, 0., 0.,
          2.29885057e-02, 0., 2.29885057e-02, 5.74712642e-02,
          1.03448272e-01, 1.14942528e-02, 1.14942528e-02, 1.14942528e-02,
          3.44827585e-02, 2.29885057e-02, 2.29885057e-02, 2.29885057e-02,
          0., 3.44827585e-02, 1.14942528e-02, 6.89655170e-02,
          1.14942528e-02, 3.44827585e-02, 0., 3.44827585e-02, 0.,
          2.29885057e-02, 5.74712642e-02, 2.29885057e-02, 1.14942528e-02,
          1.14942528e-02, 3.44827585e-02, 2.29885057e-02, 0.,
          8.04597735e-02, 2.29885057e-02, 1.14942528e-02, 1.14942528e-02,
          4.59770113e-02 ]
      - [ 0., 8.62068981e-02, 5.17241359e-02, 0., 0., 0., 0.,
          3.44827585e-02, 1.72413792e-02, 5.17241359e-02, 1.72413792e-02,
          3.44827585e-02, 0., 0., 1.72413792e-02, 0., 0., 1.72413792e-02,
          3.44827585e-02, 1.72413792e-02, 0., 1.72413792e-02, 0.,
          6.89655170e-02, 1.72413792e-02, 1.72413792e-02, 1.37931034e-01,
          1.03448272e-01, 0., 0., 3.44827585e-02, 0., 8.62068981e-02, 0.,
          0., 1.72413792e-02, 0., 6.89655170e-02, 0., 5.17241359e-02 ]
      - [ 2.29007639e-02, 5.34351133e-02, 6.87022880e-02, 7.63358781e-03,
          7.63358781e-03, 2.29007639e-02, 7.63358781e-03, 2.29007639e-02,
          3.05343512e-02, 2.29007639e-02, 8.39694664e-02, 0.,
          6.10687025e-02, 2.29007639e-02, 4.58015278e-02, 2.29007639e-02,
          7.63358781e-03, 1.52671756e-02, 2.29007639e-02, 3.05343512e-02,
          1.52671756e-02, 3.05343512e-02, 0., 0., 1.52671756e-02,
          7.63358781e-03, 3.05343512e-02, 3.81679386e-02, 7.63358781e-03,
          7.63358781e-03, 4.58015278e-02, 1.52671756e-02, 7.63358781e-03,
          2.29007639e-02, 1.52671756e-02, 3.05343512e-02, 3.81679386e-02,
          2.29007639e-02, 2.29007639e-02, 4.58015278e-02 ]
      - [ 7.50000030e-02, 5.00000007e-02, 2.50000004e-02, 0., 0.,
          2.50000004e-02, 0., 0., 2.50000004e-02, 2.50000004e-02, 0.,
          1.25000000e-01, 0., 2.50000004e-02, 1.00000001e-01,
          2.50000004e-02, 0., 2.50000004e-02, 0., 0., 0., 0., 0.,
          2.50000004e-02, 0., 5.00000007e-02, 2.50000004e-02,
          2.50000004e-02, 2.50000004e-02, 0., 0., 1.00000001e-01,
          7.50000030e-02, 2.50000004e-02, 5.00000007e-02, 2.50000004e-02,
          2.50000004e-02, 0., 0., 2.50000004e-02 ]
      - [ 5.08474559e-02, 5.08474559e-02, 8.47457647e-02, 1.69491526e-02,
          0., 3.38983051e-02, 0., 1.69491526e-02, 3.38983051e-02, 0., 0.,
          5.08474559e-02, 1.69491526e-02, 0., 3.38983051e-02,
          1.69491526e-02, 0., 1.69491526e-02, 0., 0., 0., 1.18644066e-01,
          1.69491526e-02, 3.38983051e-02, 1.69491526e-02, 1.69491526e-02,
          1.69491526e-02, 5.08474559e-02, 0., 1.69491526e-02, 0.,
          5.08474559e-02, 3.38983051e-02, 0., 6.77966103e-02,
          3.38983051e-02, 1.69491526e-02, 1.69491526e-02, 1.69491526e-02,
          5.08474559e-02 ]
      - [ 5.55555560e-02, 0., 3.33333351e-02, 2.22222228e-02, 0.,
          6.66666701e-02, 0., 0., 3.33333351e-02, 2.22222228e-02,
          6.66666701e-02, 6.66666701e-02, 1.11111114e-02, 3.33333351e-02,
          5.55555560e-02, 0., 1.11111114e-02, 1.11111114e-02,
          1.11111114e-02, 3.33333351e-02, 2.22222228e-02, 3.33333351e-02,
          1.11111114e-02, 1.11111114e-02, 0., 0., 2.22222228e-02,
          1.11111114e-02, 3.33333351e-02, 4.44444455e-02, 5.55555560e-02,
          2.22222228e-02, 5.55555560e-02, 0., 0., 4.44444455e-02,
          2.22222228e-02, 2.22222228e-02, 4.44444455e-02, 1.11111114e-02 ]
      - [ 6.66666701e-02, 5.00000045e-02, 3.33333351e-02, 5.00000045e-02,
          0., 0., 1.66666675e-02, 1.66666675e-02, 0., 0., 8.33333358e-02,
          1.66666675e-02, 6.66666701e-02, 3.33333351e-02, 3.33333351e-02,
          3.33333351e-02, 0., 0., 0., 1.66666675e-02, 0., 3.33333351e-02,
          3.33333351e-02, 3.33333351e-02, 0., 1.66666675e-02,
          8.33333358e-02, 0., 1.66666675e-02, 5.00000045e-02, 0.,
          1.66666675e-02, 1.66666675e-02, 1.66666675e-02, 1.66666675e-02,
          1.66666675e-02, 1.66666675e-02, 6.66666701e-02, 3.33333351e-02,
          1.66666675e-02 ]
      - [ 3.84615399e-02, 5.76923117e-02, 1.92307699e-02, 0., 0.,
          1.92307699e-02, 0., 3.84615399e-02, 5.76923117e-02,
          9.61538479e-02, 0., 9.61538479e-02, 0., 3.84615399e-02,
          7.69230798e-02, 3.84615399e-02, 0., 0., 0., 1.92307699e-02, 0.,
          0., 0., 1.92307699e-02, 3.84615399e-02, 1.92307699e-02, 0.,
          5.76923117e-02, 3.84615399e-02, 0., 1.92307699e-02,
          5.76923117e-02, 3.84615399e-02, 1.92307699e-02, 1.92307699e-02,
          0., 1.92307699e-02, 0., 3.84615399e-02, 1.92307699e-02 ]
      - [ 7.14285746e-02, 0., 0., 0., 0., 0., 0., 0., 0., 7.14285746e-02,
          0., 1.42857149e-01, 0., 7.14285746e-02, 2.85714298e-01,
          1.42857149e-01, 0., 0., 0., 0., 0., 7.14285746e-02, 0., 0., 0.,
          0., 0., 0., 0., 7.14285746e-02, 0., 0., 0., 0., 7.14285746e-02,
          0., 0., 0., 0., 0. ]
      - [ 6.81818202e-02, 0., 4.54545468e-02, 2.27272734e-02, 0.,
          6.81818202e-02, 0., 4.54545468e-02, 2.27272734e-02,
          4.54545468e-02, 4.54545468e-02, 9.09090936e-02, 0., 0.,
          4.54545468e-02, 4.54545468e-02, 4.54545468e-02, 0.,
          4.54545468e-02, 2.27272734e-02, 0., 6.81818202e-02, 0., 0., 0.,
          2.27272734e-02, 0., 2.27272734e-02, 2.27272734e-02,
          4.54545468e-02, 0., 4.54545468e-02, 2.27272734e-02,
          2.27272734e-02, 0., 0., 2.27272734e-02, 2.27272734e-02,
          2.27272734e-02, 0. ]
      - [ 3.12500000e-02, 3.12500000e-02, 4.68750000e-02, 0., 0.,
          3.12500000e-02, 0., 4.68750000e-02, 3.12500000e-02,
          9.37500000e-02, 4.68750000e-02, 4.68750000e-02, 1.56250000e-02,
          4.68750000e-02, 1.09375000e-01, 0., 0., 1.56250000e-02, 0., 0.,
          0., 4.68750000e-02, 0., 1.56250000e-02, 0., 6.25000000e-02, 0.,
          3.12500000e-02, 1.56250000e-02, 1.56250000e-02, 0.,
          1.56250000e-02, 4.68750000e-02, 0., 3.12500000e-02,
          4.68750000e-02, 1.56250000e-02, 0., 0., 6.25000000e-02 ]
      - [ 1.31578948e-02, 5.26315793e-02, 0., 7.89473653e-02, 0.,
          5.26315793e-02, 0., 0., 5.26315793e-02, 5.26315793e-02,
          5.26315793e-02, 7.89473653e-02, 1.31578948e-02, 0.,
          6.57894760e-02, 6.57894760e-02, 0., 3.94736826e-02,
          2.63157897e-02, 0., 0., 5.26315793e-02, 0., 1.31578948e-02,
          1.31578948e-02, 0., 1.31578948e-02, 3.94736826e-02,
          1.31578948e-02, 6.57894760e-02, 0., 1.31578948e-02,
          2.63157897e-02, 0., 0., 5.26315793e-02, 1.31578948e-02, 0.,
          1.31578948e-02, 2.63157897e-02 ]
      - [ 1.75438598e-02, 3.50877196e-02, 1.75438598e-02, 0.,
          1.75438598e-02, 1.75438598e-02, 0., 3.50877196e-02, 0.,
          1.75438598e-02, 3.50877196e-02, 5.26315793e-02, 1.75438598e-02,
          0., 5.26315793e-02, 1.75438598e-02, 0., 5.26315793e-02,
          1.75438598e-02, 1.75438598e-02, 1.75438598e-02, 0., 0.,
          5.26315793e-02, 0., 3.50877196e-02, 1.05263159e-01,
          3.50877196e-02, 0., 1.75438598e-02, 3.50877196e-02,
          1.75438598e-02, 5.26315793e-02, 1.75438598e-02, 5.26315793e-02,
          3.50877196e-02, 1.75438598e-02, 3.50877196e-02, 0.,
          5.26315793e-02 ]
      - [ 0., 0., 3.22580636e-02, 0., 0., 6.45161271e-02, 0.,
          9.67741907e-02, 3.22580636e-02, 6.45161271e-02, 9.67741907e-02,
          6.45161271e-02, 0., 0., 3.22580636e-02, 3.22580636e-02, 0.,
          1.29032254e-01, 0., 0., 0., 0., 0., 0., 0., 3.22580636e-02,
          9.67741907e-02, 0., 3.22580636e-02, 3.22580636e-02, 0.,
          3.22580636e-02, 0., 0., 3.22580636e-02, 0., 3.22580636e-02, 0.,
          0., 6.45161271e-02 ]
      - [ 2.43902430e-02, 4.87804860e-02, 4.87804860e-02, 7.31707290e-02,
          0., 4.87804860e-02, 0., 4.87804860e-02, 2.43902430e-02,
          4.87804860e-02, 2.43902430e-02, 0., 0., 4.87804860e-02, 0., 0.,
          0., 2.43902430e-02, 0., 0., 0., 2.43902430e-02, 4.87804860e-02,
          2.43902430e-02, 0., 2.43902430e-02, 4.87804860e-02, 0.,
          2.43902430e-02, 4.87804860e-02, 2.43902430e-02, 2.43902430e-02,
          2.43902430e-02, 4.87804860e-02, 2.43902430e-02, 4.87804860e-02,
          0., 0., 2.43902430e-02, 7.31707290e-02 ]
      - [ 2.43902430e-02, 4.87804860e-02, 4.87804860e-02, 4.87804860e-02,
          0., 0., 0., 2.43902430e-02, 4.87804860e-02, 2.43902430e-02,
          2.43902430e-02, 7.31707290e-02, 0., 4.87804860e-02,
          2.43902430e-02, 4.87804860e-02, 0., 2.43902430e-02,
          2.43902430e-02, 0., 0., 4.87804860e-02, 0., 2.43902430e-02,
          2.43902430e-02, 2.43902430e-02, 0., 4.87804860e-02, 0.,
          1.21951215e-01, 0., 2.43902430e-02, 0., 2.43902430e-02, 0.,
          7.31707290e-02, 0., 0., 4.87804860e-02, 0. ]
      - [ 1.81818176e-02, 7.27272704e-02, 0., 1.81818176e-02, 0., 0.,
          1.81818176e-02, 1.81818176e-02, 9.09090862e-02, 1.81818176e-02,
          9.09090862e-02, 0., 0., 0., 1.81818176e-02, 0., 0.,
          3.63636352e-02, 3.63636352e-02, 7.27272704e-02, 0.,
          7.27272704e-02, 1.81818176e-02, 0., 0., 1.81818176e-02,
          3.63636352e-02, 1.81818176e-02, 3.63636352e-02, 7.27272704e-02,
          1.81818176e-02, 1.81818176e-02, 1.81818176e-02, 5.45454547e-02,
          0., 1.81818176e-02, 1.81818176e-02, 3.63636352e-02,
          3.63636352e-02, 0. ]
      - [ 2.67857164e-02, 6.25000000e-02, 1.78571437e-02, 8.92857183e-03,
          0., 5.35714328e-02, 0., 8.92857183e-03, 2.67857164e-02, 0.,
          3.57142873e-02, 1.78571437e-02, 8.92857183e-03, 0.,
          3.57142873e-02, 2.67857164e-02, 8.92857183e-03, 6.25000000e-02,
          4.46428582e-02, 1.78571437e-02, 0., 6.25000000e-02,
          8.92857183e-03, 4.46428582e-02, 0., 0., 1.16071433e-01,
          2.67857164e-02, 1.78571437e-02, 0., 1.78571437e-02,
          3.57142873e-02, 6.25000000e-02, 8.92857183e-03, 0.,
          1.78571437e-02, 8.92857183e-03, 5.35714328e-02, 2.67857164e-02,
          2.67857164e-02 ]
      - [ 4.16666679e-02, 2.08333340e-02, 0., 0., 4.16666679e-02, 0.,
          2.08333340e-02, 0., 2.08333340e-02, 0., 0., 8.33333358e-02,
          4.16666679e-02, 0., 4.16666679e-02, 0., 0., 1.04166672e-01, 0.,
          2.08333340e-02, 0., 2.08333340e-02, 0., 2.08333340e-02,
          2.08333340e-02, 2.08333340e-02, 2.08333340e-02, 1.45833343e-01,
          0., 4.16666679e-02, 1.04166672e-01, 4.16666679e-02,
          6.25000000e-02, 0., 2.08333340e-02, 0., 0., 2.08333340e-02,
          2.08333340e-02, 0. ]
      - [ 0., 3.57142873e-02, 3.57142873e-02, 0., 0., 3.57142873e-02, 0.,
          0., 7.14285746e-02, 0., 0., 1.07142866e-01, 0., 0.,
          3.57142873e-02, 7.14285746e-02, 0., 7.14285746e-02,
          3.57142873e-02, 0., 3.57142873e-02, 0., 0., 3.57142873e-02, 0.,
          0., 0., 7.14285746e-02, 0., 0., 0., 7.14285746e-02,
          1.42857149e-01, 0., 0., 3.57142873e-02, 0., 0., 3.57142873e-02,
          7.14285746e-02 ]
      - [ 4.22535203e-02, 2.81690136e-02, 4.22535203e-02, 4.22535203e-02,
          0., 5.63380271e-02, 0., 0., 0., 1.40845068e-02, 5.63380271e-02,
          2.81690136e-02, 7.04225302e-02, 0., 4.22535203e-02,
          1.40845068e-02, 1.40845068e-02, 4.22535203e-02, 7.04225302e-02,
          2.81690136e-02, 1.40845068e-02, 1.40845068e-02, 4.22535203e-02,
          1.40845068e-02, 0., 2.81690136e-02, 4.22535203e-02, 0.,
          1.40845068e-02, 0., 1.40845068e-02, 2.81690136e-02,
          2.81690136e-02, 4.22535203e-02, 2.81690136e-02, 1.40845068e-02,
          1.40845068e-02, 1.40845068e-02, 1.40845068e-02, 4.22535203e-02 ]
      - [ 2.29885057e-02, 3.44827585e-02, 5.74712642e-02, 1.14942528e-02,
          1.14942528e-02, 0., 3.44827585e-02, 2.29885057e-02,
          3.44827585e-02, 3.44827585e-02, 2.29885057e-02, 2.29885057e-02,
          6.89655170e-02, 1.14942528e-02, 1.14942528e-02, 0.,
          1.14942528e-02, 4.59770113e-02, 4.59770113e-02, 4.59770113e-02,
          1.14942528e-02, 3.44827585e-02, 0., 4.59770113e-02, 0.,
          2.29885057e-02, 1.37931034e-01, 2.29885057e-02, 1.14942528e-02,
          0., 2.29885057e-02, 2.29885057e-02, 3.44827585e-02, 0.,
          1.14942528e-02, 1.14942528e-02, 0., 1.14942528e-02,
          2.29885057e-02, 2.29885057e-02 ]
      - [ 1.25000002e-02, 5.00000007e-02, 8.74999985e-02, 1.25000002e-02,
          1.25000002e-02, 0., 0., 0., 1.25000002e-02, 0., 2.00000003e-01,
          0., 1.25000002e-02, 0., 8.74999985e-02, 1.25000002e-02, 0.,
          3.75000015e-02, 2.50000004e-02, 1.25000002e-02, 1.25000002e-02,
          7.50000030e-02, 0., 2.50000004e-02, 0., 0., 2.50000004e-02,
          3.75000015e-02, 1.25000002e-02, 1.25000002e-02, 0.,
          2.50000004e-02, 5.00000007e-02, 0., 0., 1.25000000e-01,
          1.25000002e-02, 0., 0., 1.25000002e-02 ]
      - [ 4.65116277e-02, 2.32558139e-02, 4.65116277e-02, 0., 0.,
          4.65116277e-02, 2.32558139e-02, 4.65116277e-02, 4.65116277e-02,
          4.65116277e-02, 2.32558139e-02, 6.97674453e-02, 0.,
          2.32558139e-02, 4.65116277e-02, 0., 0., 2.32558139e-02,
          2.32558139e-02, 0., 2.32558139e-02, 6.97674453e-02, 0., 0., 0.,
          0., 0., 0., 6.97674453e-02, 4.65116277e-02, 0., 2.32558139e-02,
          4.65116277e-02, 0., 0., 2.32558139e-02, 9.30232555e-02,
          4.65116277e-02, 2.32558139e-02, 0. ]
      - [ 2.22222228e-02, 4.44444455e-02, 4.44444455e-02, 0., 0.,
          6.66666701e-02, 0., 2.22222228e-02, 4.44444455e-02,
          2.22222228e-02, 8.88888910e-02, 6.66666701e-02, 0., 0., 0.,
          8.88888910e-02, 0., 0., 2.22222228e-02, 0., 0., 2.22222228e-02,
          0., 0., 0., 0., 0., 6.66666701e-02, 2.22222228e-02,
          2.22222228e-02, 2.22222228e-02, 2.22222228e-02, 4.44444455e-02,
          0., 4.44444455e-02, 0., 2.22222228e-02, 4.44444455e-02,
          4.44444455e-02, 8.88888910e-02 ]
      - [ 1.51515156e-02, 0., 3.03030312e-02, 1.51515156e-02, 0.,
          1.06060609e-01, 1.51515156e-02, 3.03030312e-02, 7.57575780e-02,
          4.54545468e-02, 0., 4.54545468e-02, 3.03030312e-02,
          1.51515156e-02, 3.03030312e-02, 0., 1.51515156e-02,
          3.03030312e-02, 3.03030312e-02, 3.03030312e-02, 0.,
          3.03030312e-02, 4.54545468e-02, 0., 3.03030312e-02,
          1.51515156e-02, 0., 1.51515156e-02, 1.51515156e-02,
          3.03030312e-02, 6.06060624e-02, 6.06060624e-02, 1.51515156e-02,
          0., 0., 1.51515156e-02, 3.03030312e-02, 1.51515156e-02, 0.,
          6.06060624e-02 ]
      - [ 1.99999996e-02, 5.99999987e-02, 1.99999996e-02, 7.99999982e-02,
          1.99999996e-02, 0., 1.99999996e-02, 1.99999996e-02,
          1.99999996e-02, 1.99999996e-02, 3.99999991e-02, 3.99999991e-02,
          1.99999996e-02, 1.99999996e-02, 1.99999996e-02, 1.99999996e-02,
          0., 3.99999991e-02, 1.99999996e-02, 1.99999996e-02, 0.,
          3.99999991e-02, 1.99999996e-02, 0., 1.99999996e-02, 0.,
          1.99999996e-02, 1.40000001e-01, 0., 3.99999991e-02, 0.,
          1.99999996e-02, 3.99999991e-02, 3.99999991e-02, 0.,
          3.99999991e-02, 1.99999996e-02, 0., 1.99999996e-02,
          1.99999996e-02 ]
      - [ 7.14285746e-02, 2.38095243e-02, 2.38095243e-02, 2.38095243e-02,
          0., 7.14285746e-02, 4.76190485e-02, 2.38095243e-02,
          4.76190485e-02, 4.76190485e-02, 0., 2.38095243e-02, 0.,
          2.38095243e-02, 2.38095243e-02, 7.14285746e-02, 0.,
          2.38095243e-02, 0., 0., 0., 7.14285746e-02, 0., 0., 0., 0., 0.,
          4.76190485e-02, 7.14285746e-02, 2.38095243e-02, 0.,
          2.38095243e-02, 2.38095243e-02, 2.38095243e-02, 2.38095243e-02,
          4.76190485e-02, 4.76190485e-02, 0., 0., 4.76190485e-02 ]
      - [ 2.19780225e-02, 5.49450554e-02, 2.19780225e-02, 0.,
          1.09890113e-02, 5.49450554e-02, 1.09890113e-02, 1.09890113e-02,
          1.09890113e-02, 1.09890113e-02, 3.29670347e-02, 6.59340695e-02,
          6.59340695e-02, 0., 1.09890113e-02, 1.09890113e-02, 0.,
          4.39560451e-02, 0., 2.19780225e-02, 2.19780225e-02,
          4.39560451e-02, 2.19780225e-02, 1.09890113e-02, 0.,
          1.09890113e-02, 1.20879121e-01, 0., 2.19780225e-02,
          6.59340695e-02, 2.19780225e-02, 1.09890113e-02, 3.29670347e-02,
          0., 2.19780225e-02, 7.69230798e-02, 0., 2.19780225e-02, 0.,
          3.29670347e-02 ]
      - [ 1.69491526e-02, 5.08474559e-02, 5.93220331e-02, 0.,
          1.69491526e-02, 5.08474559e-02, 1.69491526e-02, 8.47457629e-03,
          3.38983051e-02, 1.69491526e-02, 3.38983051e-02, 0.,
          2.54237279e-02, 0., 0., 8.47457629e-03, 1.69491526e-02,
          4.23728824e-02, 7.62711838e-02, 1.69491526e-02, 3.38983051e-02,
          7.62711838e-02, 0., 2.54237279e-02, 1.69491526e-02,
          8.47457629e-03, 1.27118647e-01, 2.54237279e-02, 0.,
          8.47457629e-03, 3.38983051e-02, 1.69491526e-02, 3.38983051e-02,
          0., 1.69491526e-02, 4.23728824e-02, 0., 8.47457629e-03,
          8.47457629e-03, 2.54237279e-02 ]
      - [ 8.16326514e-02, 0., 8.16326514e-02, 4.08163257e-02, 0.,
          1.02040812e-01, 2.04081628e-02, 4.08163257e-02, 4.08163257e-02,
          0., 2.04081628e-02, 6.12244904e-02, 0., 0., 4.08163257e-02,
          2.04081628e-02, 0., 2.04081628e-02, 0., 2.04081628e-02, 0.,
          8.16326514e-02, 6.12244904e-02, 0., 0., 2.04081628e-02, 0.,
          2.04081628e-02, 0., 0., 0., 0., 0., 0., 2.04081628e-02,
          1.02040812e-01, 2.04081628e-02, 6.12244904e-02, 2.04081628e-02,
          0. ]
      - [ 4.12371121e-02, 6.18556663e-02, 7.21649453e-02, 0.,
          1.03092780e-02, 1.03092780e-02, 0., 2.06185561e-02, 0.,
          5.15463911e-02, 4.12371121e-02, 4.12371121e-02, 2.06185561e-02,
          2.06185561e-02, 4.12371121e-02, 5.15463911e-02, 0.,
          4.12371121e-02, 3.09278332e-02, 2.06185561e-02, 0.,
          5.15463911e-02, 1.03092780e-02, 3.09278332e-02, 1.03092780e-02,
          4.12371121e-02, 1.03092782e-01, 2.06185561e-02, 0.,
          1.03092780e-02, 0., 2.06185561e-02, 4.12371121e-02, 0.,
          1.03092780e-02, 2.06185561e-02, 1.03092780e-02, 1.03092780e-02,
          1.03092780e-02, 2.06185561e-02 ]
      - [ 2.40963846e-02, 2.40963846e-02, 1.20481923e-02, 2.40963846e-02,
          1.20481923e-02, 3.61445770e-02, 0., 3.61445770e-02,
          1.20481923e-02, 3.61445770e-02, 4.81927693e-02, 3.61445770e-02,
          3.61445770e-02, 3.61445770e-02, 2.40963846e-02, 1.20481923e-02,
          1.20481923e-02, 4.81927693e-02, 4.81927693e-02, 6.02409616e-02,
          0., 1.20481923e-02, 2.40963846e-02, 2.40963846e-02,
          2.40963846e-02, 2.40963846e-02, 3.61445770e-02, 3.61445770e-02,
          2.40963846e-02, 7.22891539e-02, 1.20481923e-02, 0.,
          2.40963846e-02, 1.20481923e-02, 0., 2.40963846e-02,
          2.40963846e-02, 3.61445770e-02, 0., 1.20481923e-02 ]
      - [ 2.10526325e-02, 5.26315793e-02, 4.21052650e-02, 2.10526325e-02,
          1.05263162e-02, 2.10526325e-02, 2.10526325e-02, 1.05263162e-02,
          4.21052650e-02, 1.05263162e-02, 6.31579012e-02, 0.,
          2.10526325e-02, 0., 4.21052650e-02, 1.05263162e-02, 0.,
          4.21052650e-02, 3.15789506e-02, 1.05263162e-02, 3.15789506e-02,
          4.21052650e-02, 1.05263162e-02, 0., 0., 1.05263162e-02,
          1.05263162e-02, 4.21052650e-02, 1.05263162e-02, 6.31579012e-02,
          4.21052650e-02, 1.05263162e-02, 6.31579012e-02, 0.,
          2.10526325e-02, 6.31579012e-02, 1.05263162e-02, 1.05263162e-02,
          4.21052650e-02, 4.21052650e-02 ]
      - [ 7.50000030e-02, 5.00000007e-02, 2.50000004e-02, 0.,
          2.50000004e-02, 0., 0., 7.50000030e-02, 0., 7.50000030e-02,
          2.50000004e-02, 7.50000030e-02, 0., 2.50000004e-02,
          1.25000000e-01, 5.00000007e-02, 0., 0., 2.50000004e-02, 0.,
          2.50000004e-02, 2.50000004e-02, 0., 2.50000004e-02, 0., 0., 0.,
          7.50000030e-02, 2.50000004e-02, 5.00000007e-02, 0.,
          2.50000004e-02, 0., 0., 2.50000004e-02, 0., 0., 0.,
          2.50000004e-02, 5.00000007e-02 ]
      - [ 2.94117667e-02, 7.84313753e-02, 6.86274543e-02, 2.94117667e-02,
          0., 4.90196086e-02, 2.94117667e-02, 0., 3.92156877e-02, 0.,
          9.80392173e-02, 2.94117667e-02, 1.96078438e-02, 1.96078438e-02,
          3.92156877e-02, 2.94117667e-02, 0., 1.96078438e-02,
          9.80392192e-03, 9.80392192e-03, 0., 3.92156877e-02,
          1.96078438e-02, 9.80392192e-03, 0., 1.96078438e-02,
          1.96078438e-02, 9.80392192e-03, 2.94117667e-02, 4.90196086e-02,
          3.92156877e-02, 9.80392192e-03, 9.80392192e-03, 9.80392192e-03,
          9.80392192e-03, 2.94117667e-02, 1.96078438e-02, 1.96078438e-02,
          4.90196086e-02, 9.80392192e-03 ]
      - [ 3.12500000e-02, 2.08333340e-02, 4.16666679e-02, 1.04166670e-02,
          0., 3.12500000e-02, 2.08333340e-02, 2.08333340e-02,
          2.08333340e-02, 3.12500000e-02, 3.12500000e-02, 1.04166670e-02,
          5.20833358e-02, 1.04166670e-02, 2.08333340e-02, 1.04166670e-02,
          0., 4.16666679e-02, 5.20833358e-02, 2.08333340e-02,
          1.04166670e-02, 2.08333340e-02, 0., 3.12500000e-02, 0.,
          1.04166670e-02, 1.14583336e-01, 3.12500000e-02, 1.04166670e-02,
          1.04166670e-02, 3.12500000e-02, 1.04166670e-02, 3.12500000e-02,
          0., 2.08333340e-02, 8.33333358e-02, 2.08333340e-02,
          5.20833358e-02, 1.04166670e-02, 2.08333340e-02 ]
      - [ 6.25000000e-02, 0., 6.25000000e-02, 0., 0., 0., 0., 0., 0.,
          6.25000000e-02, 0., 0., 0., 0., 1.25000000e-01, 0.,
          6.25000000e-02, 0., 6.25000000e-02, 6.25000000e-02, 0.,
          6.25000000e-02, 0., 0., 0., 0., 0., 0., 0., 6.25000000e-02,
          1.25000000e-01, 6.25000000e-02, 0., 0., 1.25000000e-01, 0.,
          6.25000000e-02, 0., 0., 0. ]
      - [ 1.35135138e-02, 5.40540554e-02, 6.75675720e-02, 6.75675692e-03,
          6.75675692e-03, 4.72972989e-02, 1.35135138e-02, 0.,
          3.37837860e-02, 1.35135138e-02, 6.08108118e-02, 1.35135138e-02,
          1.35135138e-02, 6.75675692e-03, 2.70270277e-02, 2.02702712e-02,
          2.70270277e-02, 2.02702712e-02, 7.43243247e-02, 6.75675692e-03,
          6.75675692e-03, 8.10810849e-02, 2.70270277e-02, 1.35135138e-02,
          6.75675692e-03, 6.75675692e-03, 1.35135138e-02, 2.02702712e-02,
          3.37837860e-02, 6.75675692e-03, 6.75675692e-03, 1.35135138e-02,
          0., 0., 2.70270277e-02, 5.40540554e-02, 2.02702712e-02,
          7.43243247e-02, 6.08108118e-02, 0. ]
      - [ 2.46913582e-02, 3.70370373e-02, 2.46913582e-02, 1.23456791e-02,
          1.23456791e-02, 4.93827164e-02, 0., 4.93827164e-02,
          1.23456791e-02, 1.23456791e-02, 3.70370373e-02, 1.23456791e-02,
          0., 1.23456791e-02, 1.23456791e-02, 0., 2.46913582e-02, 0.,
          2.46913582e-02, 3.70370373e-02, 0., 1.23456791e-01,
          2.46913582e-02, 2.46913582e-02, 0., 1.23456791e-02,
          2.46913582e-02, 3.70370373e-02, 3.70370373e-02, 3.70370373e-02,
          2.46913582e-02, 4.93827164e-02, 0., 0., 1.23456791e-02,
          6.17283955e-02, 2.46913582e-02, 2.46913582e-02, 4.93827164e-02,
          3.70370373e-02 ]
      - [ 1.76991150e-02, 5.30973449e-02, 3.53982300e-02, 8.84955749e-03,
          8.84955749e-03, 2.65486725e-02, 1.76991150e-02, 1.76991150e-02,
          2.65486725e-02, 1.76991150e-02, 6.19469024e-02, 8.84955749e-03,
          2.65486725e-02, 3.53982300e-02, 4.42477874e-02, 8.84955749e-03,
          3.53982300e-02, 5.30973449e-02, 0., 4.42477874e-02,
          8.84955749e-03, 3.53982300e-02, 8.84955749e-03, 8.84955749e-03,
          0., 4.42477874e-02, 0., 2.65486725e-02, 8.84955749e-03,
          4.42477874e-02, 2.65486725e-02, 2.65486725e-02, 2.65486725e-02,
          8.84955749e-03, 8.84955749e-03, 7.07964599e-02, 0.,
          3.53982300e-02, 2.65486725e-02, 3.53982300e-02 ]
      - [ 2.94117648e-02, 4.41176482e-02, 5.88235296e-02, 0.,
          4.41176482e-02, 0., 0., 0., 0., 0., 2.94117648e-02,
          4.41176482e-02, 1.47058824e-02, 2.94117648e-02, 4.41176482e-02,
          0., 0., 1.47058824e-02, 5.88235296e-02, 0., 0., 1.47058824e-02,
          1.47058824e-02, 5.88235296e-02, 0., 1.47058824e-02,
          1.32352948e-01, 2.94117648e-02, 1.47058824e-02, 0.,
          5.88235296e-02, 0., 2.94117648e-02, 0., 1.47058824e-02,
          5.88235296e-02, 1.47058824e-02, 2.94117648e-02, 4.41176482e-02,
          5.88235296e-02 ]
      - [ 5.88235334e-02, 3.92156877e-02, 3.92156877e-02, 3.92156877e-02,
          0., 9.80392173e-02, 0., 0., 1.96078438e-02, 5.88235334e-02,
          1.96078438e-02, 1.96078438e-02, 0., 5.88235334e-02,
          1.96078438e-02, 5.88235334e-02, 0., 1.96078438e-02,
          7.84313753e-02, 1.96078438e-02, 0., 1.96078438e-02, 0., 0., 0.,
          1.96078438e-02, 7.84313753e-02, 1.96078438e-02, 3.92156877e-02,
          0., 3.92156877e-02, 1.96078438e-02, 0., 0., 0., 1.96078438e-02,
          0., 3.92156877e-02, 1.96078438e-02, 3.92156877e-02 ]
      - [ 5.79710156e-02, 2.89855078e-02, 2.89855078e-02, 0.,
          2.89855078e-02, 1.44927539e-02, 0., 0., 0., 2.89855078e-02,
          4.34782617e-02, 1.44927539e-02, 5.79710156e-02, 0.,
          1.44927539e-02, 1.44927539e-02, 0., 7.24637657e-02,
          2.89855078e-02, 4.34782617e-02, 0., 1.44927539e-02,
          2.89855078e-02, 5.79710156e-02, 0., 4.34782617e-02,
          7.24637657e-02, 1.44927539e-02, 4.34782617e-02, 0.,
          1.44927539e-02, 4.34782617e-02, 5.79710156e-02, 0., 0.,
          7.24637657e-02, 0., 0., 1.44927539e-02, 4.34782617e-02 ]
      - [ 4.87804860e-02, 4.87804860e-02, 2.43902430e-02, 1.21951215e-02,
          4.87804860e-02, 7.31707290e-02, 0., 2.43902430e-02,
          7.31707290e-02, 2.43902430e-02, 3.65853645e-02, 0., 0.,
          2.43902430e-02, 2.43902430e-02, 1.21951215e-02, 2.43902430e-02,
          3.65853645e-02, 1.21951215e-02, 1.21951215e-02, 1.21951215e-02,
          1.21951215e-02, 1.21951215e-02, 3.65853645e-02, 1.21951215e-02,
          1.21951215e-02, 9.75609720e-02, 1.21951215e-02, 0.,
          1.21951215e-02, 0., 7.31707290e-02, 2.43902430e-02, 0.,
          1.21951215e-02, 1.21951215e-02, 2.43902430e-02, 1.21951215e-02,
          3.65853645e-02, 2.43902430e-02 ]
      - [ 3.22580636e-02, 6.45161271e-02, 9.67741907e-02, 0., 0., 0.,
          3.22580636e-02, 4.83870953e-02, 4.83870953e-02, 4.83870953e-02,
          3.22580636e-02, 0., 1.61290318e-02, 0., 0., 1.61290318e-02, 0.,
          4.83870953e-02, 1.61290318e-02, 0., 0., 6.45161271e-02, 0.,
          3.22580636e-02, 0., 1.61290318e-02, 4.83870953e-02,
          6.45161271e-02, 0., 0., 4.83870953e-02, 1.61290318e-02,
          3.22580636e-02, 1.61290318e-02, 0., 4.83870953e-02,
          1.61290318e-02, 1.61290318e-02, 1.61290318e-02, 6.45161271e-02 ]
      - [ 4.95867729e-02, 4.95867729e-02, 6.61156997e-02, 8.26446246e-03,
          0., 4.95867729e-02, 2.47933865e-02, 1.65289249e-02,
          2.47933865e-02, 1.65289249e-02, 4.13223132e-02, 3.30578499e-02,
          3.30578499e-02, 0., 8.26446246e-03, 2.47933865e-02,
          8.26446246e-03, 1.65289249e-02, 3.30578499e-02, 0.,
          2.47933865e-02, 4.13223132e-02, 8.26446246e-03, 1.65289249e-02,
          0., 0., 3.30578499e-02, 3.30578499e-02, 4.13223132e-02, 0.,
          8.26446246e-03, 3.30578499e-02, 1.65289249e-02, 2.47933865e-02,
          2.47933865e-02, 4.13223132e-02, 8.26446246e-03, 8.26446265e-02,
          4.13223132e-02, 1.65289249e-02 ]
      - [ 7.14285746e-02, 4.28571440e-02, 7.14285746e-02, 0., 0.,
          2.85714287e-02, 0., 1.42857144e-02, 4.28571440e-02,
          1.42857144e-02, 4.28571440e-02, 1.42857144e-02, 0., 0.,
          2.85714287e-02, 2.85714287e-02, 0., 4.28571440e-02,
          1.42857144e-02, 0., 0., 1.14285715e-01, 1.42857144e-02,
          1.42857144e-02, 0., 1.42857144e-02, 1.42857144e-02,
          7.14285746e-02, 1.42857144e-02, 5.71428575e-02, 2.85714287e-02,
          4.28571440e-02, 2.85714287e-02, 0., 0., 5.71428575e-02,
          1.42857144e-02, 0., 4.28571440e-02, 1.42857144e-02 ]
      - [ 1.14942528e-02, 4.59770113e-02, 3.44827585e-02, 0.,
          1.14942528e-02, 0., 0., 2.29885057e-02, 3.44827585e-02,
          2.29885057e-02, 2.29885057e-02, 0., 2.29885057e-02,
          2.29885057e-02, 1.14942528e-02, 1.14942528e-02, 1.14942528e-02,
          8.04597735e-02, 2.29885057e-02, 0., 3.44827585e-02,
          2.29885057e-02, 3.44827585e-02, 8.04597735e-02, 0.,
          6.89655170e-02, 3.44827585e-02, 2.29885057e-02, 1.14942528e-02,
          3.44827585e-02, 2.29885057e-02, 3.44827585e-02, 3.44827585e-02,
          0., 2.29885057e-02, 2.29885057e-02, 1.14942528e-02,
          9.19540226e-02, 0., 2.29885057e-02 ]
      - [ 1.33333337e-02, 1.06666669e-01, 1.20000005e-01, 1.33333337e-02,
          0., 2.66666673e-02, 2.66666673e-02, 0., 0., 0., 3.99999991e-02,
          0., 1.33333337e-02, 0., 0., 2.66666673e-02, 0., 9.33333337e-02,
          2.66666673e-02, 6.66666701e-02, 0., 5.33333346e-02, 0., 0., 0.,
          2.66666673e-02, 2.66666673e-02, 1.33333337e-02, 2.66666673e-02,
          2.66666673e-02, 3.99999991e-02, 1.33333337e-02, 2.66666673e-02,
          0., 0., 5.33333346e-02, 1.33333337e-02, 1.33333337e-02,
          1.33333337e-02, 7.99999982e-02 ]
      - [ 1.63934417e-02, 3.27868834e-02, 3.27868834e-02, 0., 0.,
          3.27868834e-02, 0., 1.63934417e-02, 4.91803251e-02,
          6.55737668e-02, 8.19672048e-02, 0., 1.63934417e-02,
          1.63934417e-02, 8.19672048e-02, 0., 0., 6.55737668e-02,
          1.63934417e-02, 0., 0., 4.91803251e-02, 4.91803251e-02,
          3.27868834e-02, 0., 0., 0., 0., 1.63934417e-02, 4.91803251e-02,
          4.91803251e-02, 3.27868834e-02, 6.55737668e-02, 1.63934417e-02,
          0., 3.27868834e-02, 1.63934417e-02, 1.63934417e-02, 0.,
          4.91803251e-02 ]
      - [ 2.53164563e-02, 3.79746854e-02, 1.26582282e-02, 0., 0.,
          6.32911399e-02, 1.26582282e-02, 0., 5.06329127e-02,
          3.79746854e-02, 2.53164563e-02, 0., 7.59493709e-02, 0., 0.,
          5.06329127e-02, 1.26582282e-02, 1.26582280e-01, 2.53164563e-02,
          3.79746854e-02, 3.79746854e-02, 1.26582282e-02, 0.,
          5.06329127e-02, 0., 0., 2.53164563e-02, 6.32911399e-02,
          2.53164563e-02, 0., 6.32911399e-02, 1.26582282e-02,
          2.53164563e-02, 1.26582282e-02, 0., 2.53164563e-02,
          1.26582282e-02, 1.26582282e-02, 2.53164563e-02, 0. ]
      - [ 2.15053763e-02, 1.07526882e-02, 2.15053763e-02, 0.,
          1.07526882e-02, 3.22580636e-02, 1.07526882e-02, 4.30107526e-02,
          6.45161271e-02, 6.45161271e-02, 9.67741907e-02, 3.22580636e-02,
          2.15053763e-02, 2.15053763e-02, 1.29032254e-01, 1.07526882e-02,
          1.07526882e-02, 2.15053763e-02, 5.37634417e-02, 1.07526882e-02,
          0., 8.60215053e-02, 1.07526882e-02, 0., 0., 3.22580636e-02,
          2.15053763e-02, 2.15053763e-02, 1.07526882e-02, 0.,
          1.07526882e-02, 1.07526882e-02, 1.07526882e-02, 0., 0.,
          1.07526882e-02, 1.07526882e-02, 2.15053763e-02, 3.22580636e-02,
          2.15053763e-02 ]
